-1.029472127556800842e-01
-6.325753033161163330e-02
2.347356826066970825e-01
1.673031002283096313e-01
-2.800594568252563477e-01
1.626878976821899414e-01
-6.122782826423645020e-01
5.616046860814094543e-02
2.753808200359344482e-01
2.720321714878082275e-01
2.607275545597076416e-01
1.355510801076889038e-01
-3.864010274410247803e-01
-3.150256276130676270e-01
-5.501504614949226379e-02
1.670323163270950317e-01
3.787223249673843384e-02
1.166223883628845215e-01
3.789846003055572510e-01
-5.440743565559387207e-01
-3.147448301315307617e-01
-3.365083038806915283e-01
3.759877681732177734e-01
2.256474196910858154e-01
-4.348899126052856445e-01
-1.240564286708831787e-01
-3.846890330314636230e-01
1.208952665328979492e-01
-1.304447650909423828e-02
5.657404065132141113e-01
2.069414034485816956e-02
-1.516143977642059326e-01
1.325111538171768188e-01
2.658917307853698730e-01
7.651791721582412720e-02
4.062268137931823730e-01
-1.102699339389801025e-01
-3.304535523056983948e-02
4.832878112792968750e-01
2.958367764949798584e-01
3.331044912338256836e-01
6.071587651968002319e-02
3.371569560840725899e-03
-3.342824056744575500e-02
-3.547700494527816772e-02
-1.813570708036422729e-01
1.660240143537521362e-01
3.399482369422912598e-01
-2.635290324687957764e-01
4.691354185342788696e-02
-4.366005659103393555e-01
-3.577881678938865662e-02
3.326438665390014648e-01
2.637821733951568604e-01
3.755346536636352539e-01
-5.184928178787231445e-01
-7.551422715187072754e-02
5.797807574272155762e-01
-4.746319353580474854e-01
2.481990456581115723e-01
3.662010431289672852e-01
1.304409950971603394e-01
-1.183780878782272339e-01
-5.905817747116088867e-01
4.365205466747283936e-01
-5.181061029434204102e-01
-6.214688420295715332e-01
3.622801005840301514e-01
3.168441951274871826e-01
-2.412231639027595520e-02
-1.428473740816116333e-01
-3.585260212421417236e-01
