9.430113434791564941e-02
2.762919068336486816e-01
1.113326475024223328e-01
3.238138556480407715e-02
-2.273399531841278076e-01
-5.545393824577331543e-01
-4.602018743753433228e-02
-6.697502732276916504e-01
-5.406000614166259766e-01
-6.484847515821456909e-02
-3.208116441965103149e-02
2.920952737331390381e-01
1.089412253350019455e-02
1.243030056357383728e-01
-2.954827807843685150e-02
1.098075136542320251e-01
1.799408942461013794e-01
-6.613634228706359863e-01
2.481768876314163208e-01
-1.270457506179809570e-01
1.079581156373023987e-01
-5.379123240709304810e-02
2.412414848804473877e-01
1.010324656963348389e-01
-5.725670456886291504e-01
-7.667160034179687500e-01
-1.406023204326629639e-01
1.264508664608001709e-01
-2.460962980985641479e-01
2.869769632816314697e-01
-3.069863915443420410e-01
-4.350881278514862061e-02
-4.577002301812171936e-02
1.350268125534057617e-01
-3.102922141551971436e-01
-2.632274329662322998e-01
6.480351090431213379e-02
-9.478910267353057861e-02
-2.045515552163124084e-02
-1.591272801160812378e-01
9.439254552125930786e-02
-9.387130737304687500e-01
2.736788094043731689e-01
-9.981220588088035583e-03
5.614945199340581894e-03
-3.550686538219451904e-01
-6.527330875396728516e-01
-5.555845797061920166e-03
-1.796618700027465820e-01
-9.723678827285766602e-01
4.097199440002441406e-02
1.099688559770584106e-01
4.710046947002410889e-01
-1.609191894531250000e-01
1.716755479574203491e-01
6.630584597587585449e-02
-3.591469824314117432e-01
-7.431055903434753418e-01
-4.013161361217498779e-02
-3.389084935188293457e-01
-7.760220021009445190e-02
1.276431232690811157e-01
-7.870520353317260742e-01
2.325031906366348267e-01
-1.097618713974952698e-01
-2.736414223909378052e-02
3.840985894203186035e-01
-5.415353551506996155e-02
-1.922333389520645142e-01
-3.126735985279083252e-01
-2.488180696964263916e-01
-5.505694076418876648e-02
8.620289713144302368e-02
1.044585853815078735e-01
-1.959962844848632812e-01
-4.482583701610565186e-01
-4.131975024938583374e-02
-4.290052503347396851e-02
-3.519718050956726074e-01
1.170480251312255859e-02
-5.466155707836151123e-02
-2.606912516057491302e-02
-1.588192284107208252e-01
1.302666962146759033e-02
-4.171685576438903809e-01
-1.180432140827178955e-01
-9.970723092555999756e-02
-6.110637784004211426e-01
-9.703236818313598633e-01
2.793565765023231506e-02
1.108146235346794128e-01
5.089252814650535583e-02
-4.055702388286590576e-01
-6.508197188377380371e-01
-6.504223495721817017e-02
-5.376632809638977051e-01
7.092311233282089233e-02
8.629672974348068237e-02
2.859073877334594727e-01
-8.187769353389739990e-02
1.793681532144546509e-01
-7.696714997291564941e-02
8.571815490722656250e-02
1.870560944080352783e-01
-3.149039149284362793e-01
-1.205829501152038574e+00
6.578062474727630615e-02
1.163426600396633148e-02
-3.604019060730934143e-02
-8.238880634307861328e-01
-8.974047899246215820e-01
-8.273302763700485229e-02
-1.885216236114501953e-01
-1.046129822731018066e+00
-4.753829836845397949e-01
-1.961450725793838501e-01
-1.695093512535095215e-01
-5.638730525970458984e-02
-4.836630541831254959e-03
-5.045517683029174805e-01
-3.723050057888031006e-01
-9.437923878431320190e-02
-6.919282022863626480e-04
-3.020729422569274902e-01
2.609568089246749878e-02
-2.268004417419433594e-01
-1.022725582122802734e+00
2.926777005195617676e-01
8.367230743169784546e-02
-3.865593969821929932e-01
-3.442202508449554443e-02
1.596667915582656860e-01
1.963367462158203125e-01
-6.136300507932901382e-03
2.606956362724304199e-01
2.709781229496002197e-01
-3.035484254360198975e-01
-1.457995474338531494e-01
-1.508395671844482422e-01
-7.711094617843627930e-02
-1.047500893473625183e-01
-4.178194105625152588e-01
-1.277321875095367432e-01
-7.859563827514648438e-01
-6.737212836742401123e-02
-2.145615220069885254e-01
3.332566842436790466e-02
-1.609670668840408325e-01
-5.702878162264823914e-02
-4.327080249786376953e-01
-1.963928341865539551e-01
1.225293204188346863e-01
-4.058236181735992432e-01
4.449607729911804199e-01
4.009856283664703369e-01
-9.053310751914978027e-01
3.586120605468750000e-01
9.598585218191146851e-02
-4.035564064979553223e-01
-8.652407675981521606e-02
1.081409230828285217e-01
4.930051565170288086e-01
1.585517972707748413e-01
-2.972768433392047882e-02
-9.776033461093902588e-03
2.992764115333557129e-03
1.012595370411872864e-02
3.511426225304603577e-02
5.419307947158813477e-02
-3.675424456596374512e-01
1.073371805250644684e-02
1.813674569129943848e-01
-2.986017167568206787e-01
-4.090025722980499268e-01
-4.839489981532096863e-02
3.942436724901199341e-02
-6.814304590225219727e-01
-6.468715071678161621e-01
-5.045356154441833496e-01
2.423905208706855774e-02
5.730097740888595581e-02
-8.442972600460052490e-02
1.312904804944992065e-01
-1.004629015922546387e+00
5.823735520243644714e-02
-3.418963029980659485e-02
-1.983116194605827332e-02
-9.018337726593017578e-02
6.621417403221130371e-02
-1.157963991165161133e+00
-9.308778643608093262e-01
3.595659509301185608e-02
1.968729197978973389e-01
-1.469707936048507690e-01
-1.656416207551956177e-01
4.072293266654014587e-02
-5.643599852919578552e-02
-1.242939531803131104e-01
-1.271757781505584717e-01
1.055083647370338440e-01
-4.438343346118927002e-01
-3.316811621189117432e-01
2.973791062831878662e-01
-4.493231326341629028e-02
1.092275604605674744e-01
1.130212694406509399e-01
-3.761499226093292236e-01
-2.355493903160095215e-01
2.652560472488403320e-01
-7.942942976951599121e-01
-5.670448392629623413e-02
2.426748722791671753e-01
2.450079768896102905e-01
-2.064221501350402832e-01
7.112214714288711548e-02
1.550925672054290771e-01
-1.070369839668273926e+00
-6.745657324790954590e-01
-9.384719282388687134e-02
-5.155565738677978516e-01
-4.564478695392608643e-01
3.075510263442993164e-01
-5.642985701560974121e-01
2.530945464968681335e-02
3.864094242453575134e-02
1.015464067459106445e-01
-9.010536968708038330e-02
-3.320273160934448242e-01
-2.228316068649291992e-01
-9.066455960273742676e-01
-1.529544889926910400e-01
1.589312702417373657e-01
-1.881444007158279419e-01
-4.173610731959342957e-02
-2.191393375396728516e-01
-1.778932511806488037e-01
1.944741606712341309e-01
1.103472411632537842e-01
-5.184402465820312500e-01
4.092424735426902771e-02
-4.708932712674140930e-02
-2.315713278949260712e-02
-2.140928804874420166e-01
-3.953128457069396973e-01
-4.028978943824768066e-01
5.371391177177429199e-01
-5.045703426003456116e-02
-4.285889863967895508e-01
-1.346540331840515137e+00
-2.446833848953247070e-01
-4.323325306177139282e-02
1.265730522572994232e-02
-9.535501003265380859e-01
-2.862915396690368652e-01
-1.623928248882293701e-01
-8.617416024208068848e-02
2.740486264228820801e-01
5.725690163671970367e-03
-4.982212930917739868e-02
-6.795133650302886963e-02
-7.315935194492340088e-02
-9.460614323616027832e-01
-1.472036987543106079e-01
-2.505983412265777588e-01
4.450297728180885315e-02
-2.420782111585140228e-02
-1.720643639564514160e-01
2.204620838165283203e-01
1.541704684495925903e-01
2.468969970941543579e-01
5.816505476832389832e-02
7.839516550302505493e-02
-6.377432495355606079e-02
-5.641399621963500977e-01
2.157091200351715088e-01
-8.444776535034179688e-01
-6.585731171071529388e-03
1.622803211212158203e-01
6.202223524451255798e-02
8.773814886808395386e-02
2.274837940931320190e-01
-1.306185603141784668e+00
5.078218877315521240e-02
1.218440756201744080e-01
-8.274388909339904785e-01
-4.318744875490665436e-03
-7.824116945266723633e-01
9.304977720603346825e-04
1.474404335021972656e-01
-2.245436161756515503e-01
-3.110784105956554413e-02
-1.597986817359924316e-01
-4.945271909236907959e-01
-5.023093819618225098e-01
1.757941544055938721e-01
3.360516205430030823e-02
-3.944556415081024170e-01
-4.376613497734069824e-01
3.059211373329162598e-01
1.232007667422294617e-01
5.856014415621757507e-02
1.401190906763076782e-01
-1.278649568557739258e-01
-1.866036467254161835e-02
-4.380979761481285095e-02
-1.538299322128295898e+00
2.580792903900146484e-01
1.584282889962196350e-02
2.261017709970474243e-01
7.031270116567611694e-02
3.305789083242416382e-02
1.868834160268306732e-02
3.764131665229797363e-01
-1.194866180419921875e+00
-6.016339361667633057e-02
-6.039501726627349854e-02
-3.368013203144073486e-01
4.617792367935180664e-02
-8.271801471710205078e-01
2.743419706821441650e-01
-1.964788138866424561e-02
-1.987894326448440552e-01
-8.479694277048110962e-02
-3.286928236484527588e-01
-2.883611321449279785e-01
-4.139721393585205078e-01
-7.687568068504333496e-01
2.446950972080230713e-02
-7.523844242095947266e-01
1.570951789617538452e-01
2.205425053834915161e-01
-2.848271131515502930e-01
-2.915083467960357666e-01
-5.278410315513610840e-01
-9.764300584793090820e-01
-6.159607693552970886e-02
-3.819206953048706055e-01
-3.193844482302665710e-02
-1.242317184805870056e-01
3.304402232170104980e-01
-3.209424391388893127e-02
-6.916110962629318237e-02
-2.473765052855014801e-02
-1.243612021207809448e-01
-1.199223995208740234e+00
2.440526150166988373e-03
-1.000543236732482910e-01
-9.333373978734016418e-03
-6.667131781578063965e-01
-1.803655505180358887e+00
-7.583616673946380615e-02
-5.631014704704284668e-02
4.187631886452436447e-03
3.771352767944335938e-01
2.863582074642181396e-01
-1.233064830303192139e-01
-5.886991620063781738e-01
1.885857991874217987e-02
2.501302957534790039e-01
-2.846998162567615509e-03
-7.277501225471496582e-01
-1.855924427509307861e-01
-1.639214307069778442e-01
2.151393331587314606e-02
6.856792420148849487e-02
1.606526598334312439e-02
-1.511574834585189819e-01
8.650019019842147827e-02
7.980168610811233521e-02
-4.624070823192596436e-01
-2.093412131071090698e-01
-2.374152690172195435e-01
-1.548085361719131470e-01
-1.547569222748279572e-02
2.404490560293197632e-01
-2.203916907310485840e-01
-1.710507869720458984e-01
-4.255667924880981445e-01
2.974382042884826660e-02
1.219147630035877228e-02
1.099751610308885574e-02
7.377140969038009644e-02
-9.853820204734802246e-01
-9.750905632972717285e-02
-3.874383121728897095e-02
-1.408050656318664551e-01
2.492009550333023071e-01
-8.720068633556365967e-02
-2.285788953304290771e-01
2.808586955070495605e-01
1.937712281942367554e-01
1.728305243887007236e-03
1.444113552570343018e-01
-8.506600856781005859e-01
-3.628937900066375732e-01
1.143987998366355896e-01
2.708149515092372894e-02
-4.144350886344909668e-01
2.608486413955688477e-01
-2.216596752405166626e-01
2.356135658919811249e-02
-6.792343407869338989e-02
-3.374741878360509872e-03
-2.527839690446853638e-02
-5.434701442718505859e-01
-1.100984141230583191e-01
-6.301931142807006836e-01
1.548455953598022461e-01
3.734725713729858398e-01
5.832781642675399780e-02
-2.070750892162322998e-01
-2.257548421621322632e-01
2.249841094017028809e-01
-1.730210520327091217e-02
-8.650531619787216187e-02
7.509978115558624268e-02
1.677179336547851562e-01
3.711835294961929321e-02
2.352826148271560669e-01
-1.007615849375724792e-01
-7.186253368854522705e-02
-7.902272045612335205e-02
1.777488887310028076e-01
-7.800900191068649292e-02
-2.786722779273986816e-01
-8.486600518226623535e-01
1.319439150393009186e-02
-2.033675014972686768e-01
3.758931159973144531e-02
1.493393331766128540e-01
-7.347444295883178711e-01
-1.791623681783676147e-01
1.145637407898902893e-01
-8.099264502525329590e-01
1.727501861751079559e-02
-7.235974818468093872e-02
9.526444226503372192e-02
-5.855662003159523010e-02
4.079608321189880371e-01
-3.614443242549896240e-01
-4.292752742767333984e-01
-1.677296906709671021e-01
1.400281190872192383e-01
5.655312165617942810e-02
-6.281828135251998901e-02
-1.290681213140487671e-01
-4.514704644680023193e-01
-4.041122272610664368e-02
1.090409308671951294e-01
-6.597872972488403320e-01
6.575833261013031006e-02
9.262257814407348633e-02
-4.433034062385559082e-01
-1.193616464734077454e-01
-2.317459136247634888e-01
2.758193612098693848e-01
-1.944528967142105103e-01
-1.614319831132888794e-01
1.672113388776779175e-01
2.248026430606842041e-01
1.157413609325885773e-02
1.322018802165985107e-01
3.433263599872589111e-01
-3.217600658535957336e-02
-1.790490150451660156e-01
-1.077476978302001953e+00
1.513510793447494507e-01
-5.307524651288986206e-02
2.497260570526123047e-01
-6.719476729631423950e-02
-2.844457626342773438e-01
2.212990671396255493e-01
1.065497994422912598e-01
-1.177456855773925781e+00
-8.954143524169921875e-02
-1.152181699872016907e-01
-3.594639599323272705e-01
6.332805752754211426e-02
-7.050772905349731445e-01
2.644168138504028320e-01
4.827694222331047058e-02
-4.240805506706237793e-01
6.758515536785125732e-02
-6.019521951675415039e-01
-2.547521889209747314e-01
-1.017030239105224609e+00
-1.435005784034729004e+00
1.175501644611358643e-01
-1.341529607772827148e+00
-9.887463599443435669e-02
1.829666271805763245e-02
1.216694153845310211e-02
-8.347692899405956268e-03
1.276010423898696899e-01
-7.658928632736206055e-01
5.071556661278009415e-03
-2.815778553485870361e-01
-4.629468321800231934e-01
-4.760017152875661850e-03
-2.307557314634323120e-01
5.244947597384452820e-02
-5.501021817326545715e-02
-1.199691519141197205e-01
-4.755991101264953613e-01
-5.740042924880981445e-01
-3.084996901452541351e-02
1.852803230285644531e-01
-3.734542801976203918e-02
-1.046400547027587891e+00
-3.912730813026428223e-01
2.374926507472991943e-01
-2.150647193193435669e-01
-9.677293710410594940e-04
-7.990864515304565430e-01
-2.777190208435058594e-01
-8.639644831418991089e-02
3.378566727042198181e-02
1.288513094186782837e-01
-1.851066946983337402e-01
-1.236164644360542297e-01
-1.997066885232925415e-01
8.475261926651000977e-02
-1.800450235605239868e-01
-3.508756682276725769e-02
-4.490388631820678711e-01
-3.673511743545532227e-01
1.428911536931991577e-01
8.845984935760498047e-02
-1.235652685165405273e+00
-1.299963742494583130e-01
-3.873207047581672668e-02
-6.411160230636596680e-01
6.248877644538879395e-01
-3.991602361202239990e-02
-1.957594305276870728e-01
-3.268299698829650879e-01
1.048536375164985657e-01
2.712802775204181671e-02
-1.992897391319274902e-01
1.249925941228866577e-01
3.135700523853302002e-01
-6.447736620903015137e-01
-4.190787971019744873e-01
-1.643568575382232666e-01
7.671471834182739258e-01
-4.550526738166809082e-01
9.524814784526824951e-02
1.018413752317428589e-01
9.048267453908920288e-02
-4.222346246242523193e-01
-7.027142643928527832e-01
9.838102757930755615e-02
-2.231422513723373413e-01
-1.993767768144607544e-01
-1.466036289930343628e-01
3.123018741607666016e-01
1.163542345166206360e-01
-1.270113736391067505e-01
1.870378702878952026e-01
3.358787596225738525e-01
-2.929826974868774414e-01
-6.814746260643005371e-01
3.311318457126617432e-01
-6.511569619178771973e-01
2.040045112371444702e-01
3.732460141181945801e-01
-9.532157778739929199e-01
1.928053051233291626e-01
5.200561136007308960e-02
-1.052189469337463379e+00
-1.975857317447662354e-01
-2.495193481445312500e-02
-8.896550536155700684e-01
6.522805243730545044e-02
-1.288790106773376465e+00
9.737045317888259888e-02
-5.020708218216896057e-02
-1.128831386566162109e+00
1.565556973218917847e-01
-6.555251479148864746e-01
-1.316325068473815918e+00
-1.442993283271789551e+00
-5.969538092613220215e-01
-1.204676106572151184e-01
-1.737831711769104004e+00
-1.062403917312622070e-01
2.482472360134124756e-01
1.502431333065032959e-01
-1.047095358371734619e-01
-3.328106403350830078e-01
-3.682677149772644043e-01
-3.460461497306823730e-01
-4.428703188896179199e-01
-1.041118726134300232e-01
-4.404075071215629578e-02
-2.855677306652069092e-01
-9.682306647300720215e-02
3.702886700630187988e-01
-7.741194218397140503e-02
3.137609660625457764e-01
-1.425365924835205078e+00
-6.174643710255622864e-02
-1.753349006175994873e-01
2.940526790916919708e-02
-2.482767105102539062e-01
-1.218546509742736816e+00
-3.069501928985118866e-02
2.013363689184188843e-01
-2.861723601818084717e-01
-2.273276001214981079e-01
-1.499619614332914352e-02
-4.864083603024482727e-02
-2.006440311670303345e-01
-7.354862242937088013e-02
-5.973950624465942383e-01
8.669947832822799683e-02
-9.720794856548309326e-02
1.008584126830101013e-01
-6.762151420116424561e-02
8.680267259478569031e-03
-1.763277873396873474e-02
1.348575390875339508e-02
-4.860945045948028564e-02
1.466546673327684402e-02
-2.580065429210662842e-01
-1.213162913918495178e-01
-1.226006150245666504e-01
-5.513216853141784668e-01
3.969888091087341309e-01
1.008096411824226379e-01
-1.118631958961486816e+00
-4.058527946472167969e-02
1.195664703845977783e-01
-2.337862491607666016e+00
1.291864812374114990e-01
1.205970272421836853e-01
-4.616540074348449707e-01
1.403473168611526489e-01
-1.580457925796508789e+00
-5.226189494132995605e-01
-2.752726078033447266e-01
-1.798085421323776245e-01
1.553955525159835815e-01
1.572752185165882111e-02
1.104747056961059570e-01
2.452358901500701904e-01
-1.274601817131042480e-01
-9.022542834281921387e-02
2.850595116615295410e-01
-3.442817032337188721e-01
-2.590535879135131836e-01
1.242915168404579163e-02
-2.112823426723480225e-01
-2.670536339282989502e-01
9.885608451440930367e-04
-1.881831288337707520e-01
-2.835973799228668213e-01
5.203711986541748047e-01
-2.032480239868164062e-01
-5.846170336008071899e-02
-3.117628097534179688e-01
-1.350086480379104614e-01
-5.971752405166625977e-01
-2.538916170597076416e-01
7.609645277261734009e-02
-2.810654640197753906e-01
4.807829558849334717e-01
6.366459280252456665e-02
-7.898771762847900391e-02
-2.243720293045043945e-01
-7.579555511474609375e-01
-3.234495222568511963e-02
3.367732837796211243e-02
2.612958550453186035e-01
-3.279682248830795288e-02
-2.881016731262207031e-01
-2.976656258106231689e-01
9.172293543815612793e-02
2.438665134832262993e-03
1.728388480842113495e-02
-7.676203250885009766e-01
-1.152928993105888367e-01
-1.791581362485885620e-01
-1.722694039344787598e-01
4.952182248234748840e-02
1.860702633857727051e-01
-2.377021908760070801e-01
-1.003343164920806885e-01
7.645883411169052124e-02
-3.237587809562683105e-01
-4.970606788992881775e-02
-2.095115780830383301e-01
2.855229079723358154e-01
-8.689080178737640381e-02
7.974793203175067902e-03
-2.215168178081512451e-01
2.003905624151229858e-01
-6.344102621078491211e-01
1.120641380548477173e-01
1.186107322573661804e-01
5.094389244914054871e-02
1.658932864665985107e-01
-1.104565143585205078e+00
-2.655006647109985352e-01
-1.246253401041030884e-02
-1.051565170288085938e+00
3.125875294208526611e-01
1.105260998010635376e-01
2.179919183254241943e-01
-9.080740064382553101e-02
-7.166858315467834473e-01
1.058639436960220337e-01
7.087641954421997070e-02
-7.089249789714813232e-02
-2.421819120645523071e-01
3.892349302768707275e-01
9.064166806638240814e-03
-5.207380652427673340e-01
2.966657280921936035e-01
-4.201901331543922424e-02
-1.127173304557800293e+00
-3.118591606616973877e-01
3.315575793385505676e-02
-6.496362090110778809e-01
-1.219630315899848938e-01
2.330876141786575317e-01
-9.480968713760375977e-01
-1.387472897768020630e-01
-2.444713190197944641e-02
-2.669266760349273682e-01
-3.585616499185562134e-02
3.666208982467651367e-01
-1.740506589412689209e-01
-4.874393343925476074e-01
-7.825915217399597168e-01
2.725645601749420166e-01
3.542889840900897980e-03
-1.548990488052368164e+00
1.065241619944572449e-01
-7.509668469429016113e-01
-3.001966178417205811e-01
-6.478269696235656738e-01
-1.243290066719055176e+00
-1.247386857867240906e-01
-1.394008994102478027e+00
2.129659503698348999e-01
1.611935496330261230e-01
-1.175963692367076874e-02
-1.379465311765670776e-01
-4.968137443065643311e-01
-7.774842977523803711e-01
-1.006611883640289307e-01
-1.104949355125427246e+00
-2.005382180213928223e-01
-4.537465795874595642e-02
-3.210073709487915039e-01
1.163850724697113037e-01
-9.089881181716918945e-02
-2.704279422760009766e-01
-7.332176715135574341e-02
-4.416179358959197998e-01
1.907091140747070312e-01
-1.265426725149154663e-01
-1.099843978881835938e-01
8.907015621662139893e-02
-1.813134789466857910e+00
-1.826687017455697060e-03
-1.533727645874023438e-01
4.308801516890525818e-02
-2.066597789525985718e-01
5.036773681640625000e-01
6.584790349006652832e-02
-5.524113774299621582e-01
-4.007723629474639893e-01
1.490949392318725586e-01
-1.570563763380050659e-01
-2.338072657585144043e-01
-2.266632020473480225e-01
-8.988702669739723206e-03
2.081048041582107544e-01
2.553535401821136475e-01
1.459663212299346924e-01
3.076433241367340088e-01
9.315222501754760742e-02
2.238141745328903198e-01
1.836447566747665405e-01
3.498320002108812332e-03
-2.098401933908462524e-01
5.410541594028472900e-02
-2.651090919971466064e-01
7.606308907270431519e-02
2.353304028511047363e-01
-1.783132404088973999e-01
9.285294450819492340e-03
1.059426590800285339e-01
-1.005462169647216797e+00
-1.239575352519750595e-02
-2.135242335498332977e-02
-4.267975091934204102e-01
1.463889628648757935e-01
-1.070039421319961548e-01
-1.602343767881393433e-01
-4.653881192207336426e-01
-1.305314004421234131e-01
1.508088558912277222e-01
-1.661202758550643921e-01
3.643928766250610352e-01
-7.925539463758468628e-02
-3.703062832355499268e-01
-3.661976158618927002e-01
1.314420253038406372e-01
-3.472086489200592041e-01
-4.660405218601226807e-01
-5.551276803016662598e-01
-4.287399351596832275e-01
-1.403999924659729004e+00
1.272115707397460938e-01
1.196087524294853210e-01
1.463395636528730392e-02
-1.715461164712905884e-01
-5.885132029652595520e-02
-7.413406968116760254e-01
1.608833670616149902e-01
8.445658534765243530e-02
-1.491156697273254395e+00
-1.809682995080947876e-01
-3.789270520210266113e-01
-5.451799631118774414e-01
1.331681907176971436e-01
1.048229541629552841e-02
-5.037956833839416504e-01
-9.530636668205261230e-02
3.455668389797210693e-01
-1.977387070655822754e-02
-1.943146735429763794e-01
-2.302461862564086914e-01
-2.372474074363708496e-01
3.168454468250274658e-01
-3.309783637523651123e-01
3.972428441047668457e-01
3.939871490001678467e-02
-3.983491659164428711e-01
-2.526953518390655518e-01
7.967872917652130127e-02
1.557082086801528931e-01
-2.397952601313591003e-02
-6.761645078659057617e-01
1.863042823970317841e-02
5.189747735857963562e-02
-5.385664105415344238e-01
-4.372037947177886963e-02
-1.174389198422431946e-01
4.370145872235298157e-02
-7.335119694471359253e-02
1.596734523773193359e-01
-4.810730516910552979e-01
-4.750175178050994873e-01
1.521502733230590820e-01
1.083689369261264801e-02
-9.927821904420852661e-02
-1.010403871536254883e+00
-1.141151040792465210e-01
-9.764595627784729004e-01
9.409173578023910522e-02
-2.028831541538238525e-01
-6.931160576641559601e-03
-7.319676280021667480e-01
-2.509750239551067352e-02
-5.956839397549629211e-02
1.861100792884826660e-01
-2.106178179383277893e-02
-2.016632407903671265e-01
-2.746622562408447266e-01
6.824816763401031494e-02
4.129415377974510193e-02
2.702353298664093018e-01
-4.308604598045349121e-01
-1.014007687568664551e+00
-5.440307259559631348e-01
-7.184765338897705078e-01
-1.896931678056716919e-01
-4.240127205848693848e-01
-3.185656964778900146e-01
1.921494603157043457e-01
1.387863457202911377e-01
-3.927546143531799316e-01
9.554538130760192871e-02
-1.714789657853543758e-03
-6.205438971519470215e-01
-1.107469275593757629e-01
-3.913408815860748291e-01
-2.672179639339447021e-01
1.298513635993003845e-02
-2.466919720172882080e-01
-2.204890102148056030e-01
6.543601921293884516e-05
-7.827144861221313477e-01
-1.224967837333679199e+00
-1.053520560264587402e+00
-2.262668609619140625e-01
-3.829203546047210693e-02
2.971231341361999512e-01
5.875847488641738892e-02
-3.629677891731262207e-01
-3.847669437527656555e-02
3.621380925178527832e-01
-4.752004444599151611e-01
-1.729009449481964111e-01
-1.314822077751159668e+00
-8.686007857322692871e-01
-6.432268023490905762e-02
-7.966906428337097168e-01
5.031885579228401184e-02
-1.317046023905277252e-02
1.689777970314025879e-01
6.240278109908103943e-02
-9.919489175081253052e-02
8.941868692636489868e-02
-7.447003573179244995e-02
1.983263492584228516e-01
-2.834571599960327148e-01
1.719567328691482544e-01
-1.544913947582244873e-01
2.874747514724731445e-01
-8.613099902868270874e-02
-9.704122692346572876e-02
-1.083479146473109722e-03
-3.309927880764007568e-01
-1.152494177222251892e-01
-6.086789369583129883e-01
-3.997832834720611572e-01
5.171104148030281067e-02
3.466359972953796387e-01
8.547275513410568237e-02
-3.788025677204132080e-02
1.023967843502759933e-02
-3.641213476657867432e-01
3.375484794378280640e-02
1.670785993337631226e-01
1.187906563282012939e-01
-1.181097269058227539e+00
-3.709278628230094910e-02
-3.741644918918609619e-01
-1.255423128604888916e-01
-6.416234374046325684e-01
-9.500925540924072266e-01
2.559788897633552551e-02
1.902943849563598633e-01
3.240878283977508545e-01
-2.952247858047485352e-01
2.646518945693969727e-01
-2.249629497528076172e-01
1.230528354644775391e-01
-2.551605366170406342e-02
-8.506477624177932739e-02
-1.358802318572998047e-01
5.285091698169708252e-02
-1.673089742660522461e+00
-5.100846886634826660e-01
-2.673486173152923584e-01
-2.000458687543869019e-01
-2.427672743797302246e-01
-5.065307021141052246e-01
-1.366082429885864258e-01
2.382715232670307159e-02
-7.522595673799514771e-02
4.882917404174804688e-01
-1.685801595449447632e-01
-4.066170379519462585e-02
-3.809512555599212646e-01
-1.459181904792785645e-01
-2.010640501976013184e-01
-3.357512354850769043e-01
-1.080638840794563293e-01
-1.102228611707687378e-01
-3.825129568576812744e-01
-1.290084235370159149e-02
1.581453531980514526e-01
1.987306624650955200e-01
1.622296869754791260e-01
-8.040258288383483887e-02
-4.589601755142211914e-01
-1.409142464399337769e-01
1.956711709499359131e-01
-6.849764585494995117e-01
6.572230160236358643e-02
-1.942710429430007935e-01
-1.093123435974121094e+00
2.766980789601802826e-02
1.240524724125862122e-01
3.923135399818420410e-01
-2.062734961509704590e-01
2.156609147787094116e-01
1.314322352409362793e-01
1.155344620347023010e-01
-9.428513795137405396e-02
-5.599479079246520996e-01
6.999712437391281128e-02
-6.062263250350952148e-01
9.243783354759216309e-02
-8.205733299255371094e-01
-1.429721266031265259e-01
7.536800950765609741e-02
1.322732865810394287e-01
8.486980199813842773e-02
7.658126950263977051e-02
-5.798579454421997070e-01
5.024757236242294312e-03
8.354391157627105713e-02
-4.153895378112792969e-01
-1.144168060272932053e-02
5.297607928514480591e-02
2.039731740951538086e-01
-1.300481706857681274e-01
1.766805946826934814e-01
-5.015387535095214844e-01
-8.064069151878356934e-01
7.265751808881759644e-02
1.668169200420379639e-01
-2.015625089406967163e-01
-4.759288728237152100e-01
-1.226781457662582397e-01
-6.812868714332580566e-01
-2.292708866298198700e-02
-7.920115441083908081e-02
4.498213529586791992e-02
-1.528392136096954346e-01
1.911275386810302734e-01
1.339064985513687134e-01
-3.689390420913696289e-01
-1.077333092689514160e+00
2.369374595582485199e-02
1.937255822122097015e-02
-1.669803112745285034e-01
4.820765554904937744e-01
-3.879440948367118835e-02
7.299344241619110107e-02
-2.337178289890289307e-01
1.539248228073120117e-01
9.517016261816024780e-02
1.364673022180795670e-02
-1.323453485965728760e-01
2.969789803028106689e-01
-2.547263801097869873e-01
-1.527998447418212891e-01
-4.347668960690498352e-02
-7.096577286720275879e-01
2.630951106548309326e-01
9.950796514749526978e-02
9.757640957832336426e-02
1.382803767919540405e-01
1.477577090263366699e-01
-3.460545539855957031e-01
1.018248572945594788e-01
-1.027815118432044983e-01
2.860644273459911346e-02
1.590516977012157440e-02
6.270627677440643311e-02
-1.275528818368911743e-01
8.108470588922500610e-02
-6.966109275817871094e-01
4.473692178726196289e-02
1.324286162853240967e-01
-2.672916091978549957e-02
1.601716876029968262e-01
-3.797365427017211914e-01
2.813506424427032471e-01
1.679160594940185547e-01
-1.224377676844596863e-01
1.575100272893905640e-01
1.771309413015842438e-02
1.335850059986114502e-01
2.673348486423492432e-01
1.015453785657882690e-01
9.967561066150665283e-02
-2.305803149938583374e-01
4.784907773137092590e-02
-4.232642948627471924e-01
-2.363386750221252441e-01
6.398098077625036240e-03
8.605189621448516846e-02
4.815068095922470093e-02
-7.112660259008407593e-02
-1.007150769233703613e+00
-1.040421575307846069e-01
-4.539598245173692703e-03
-7.077635526657104492e-01
1.742768138647079468e-01
-3.962440788745880127e-02
-1.510465145111083984e-01
-4.864378832280635834e-03
-1.898854374885559082e-01
-3.875384628772735596e-01
9.069802612066268921e-02
-1.601703017950057983e-01
-2.683004736900329590e-01
-1.327386498451232910e+00
2.466671764850616455e-01
-1.297877877950668335e-01
9.628683328628540039e-02
8.807498216629028320e-02
-9.099385142326354980e-02
-8.634138107299804688e-01
-1.643732488155364990e-01
1.726614832878112793e-01
-1.776918619871139526e-01
9.150311350822448730e-02
1.948460042476654053e-01
-7.068715691566467285e-01
2.749035358428955078e-01
8.720850199460983276e-02
-2.445655316114425659e-02
-8.217273354530334473e-01
-1.771369874477386475e-01
3.568867687135934830e-03
-2.658008038997650146e-02
-7.637969851493835449e-01
-1.185605764389038086e+00
-5.722807049751281738e-01
-2.201813757419586182e-01
-7.968304306268692017e-02
3.772102296352386475e-02
-5.745387077331542969e-01
-1.141965240240097046e-01
-9.519979357719421387e-01
-1.023525279015302658e-02
-2.743156850337982178e-01
-7.381869852542877197e-02
-3.450627624988555908e-02
-4.822773486375808716e-02
1.101185977458953857e-01
2.491725794970989227e-02
2.679758965969085693e-01
7.952956110239028931e-02
-9.580147266387939453e-02
1.013793721795082092e-01
8.675134181976318359e-02
8.078319579362869263e-02
-5.398051142692565918e-01
2.033957093954086304e-01
2.603660821914672852e-01
-8.972190618515014648e-01
-4.698765575885772705e-01
-4.118962958455085754e-02
1.225742772221565247e-01
8.671050518751144409e-02
1.384073942899703979e-01
-1.542245626449584961e+00
-6.598734110593795776e-02
-2.224060520529747009e-02
1.905942149460315704e-02
2.722019851207733154e-01
-6.731498837471008301e-01
-1.958827674388885498e-01
-6.304125785827636719e-01
-2.994320392608642578e-01
-8.719564974308013916e-02
2.520602894946932793e-03
-3.613674640655517578e-02
-8.826909065246582031e-01
-2.176957577466964722e-02
-1.698915064334869385e-01
-2.656524181365966797e-01
-6.364262104034423828e-02
-4.180301427841186523e-01
-6.402816176414489746e-01
6.051936745643615723e-02
-6.004802510142326355e-02
4.649115353822708130e-02
4.528038948774337769e-02
-3.295288980007171631e-01
8.713714033365249634e-02
1.537469923496246338e-01
1.398265175521373749e-02
-4.779488742351531982e-01
5.395011603832244873e-02
1.345383934676647186e-02
-1.519267633557319641e-02
6.126417592167854309e-02
-1.054020047187805176e+00
-3.683215379714965820e-02
-7.283278554677963257e-02
1.293402165174484253e-01
-9.339965134859085083e-02
4.467091336846351624e-02
-1.466554496437311172e-02
-3.154215961694717407e-02
-1.878442019224166870e-01
-6.254931539297103882e-02
8.473820984363555908e-02
1.370734870433807373e-01
-4.228200912475585938e-01
-6.302152872085571289e-01
2.481785267591476440e-01
1.550501137971878052e-01
-4.077050983905792236e-01
2.618152201175689697e-01
-1.326740253716707230e-02
-2.021249383687973022e-02
-3.418937623500823975e-01
2.461788505315780640e-01
-7.642377167940139771e-02
-1.488489191979169846e-02
9.245821088552474976e-02
8.556082844734191895e-02
-4.951899647712707520e-01
-8.722152560949325562e-04
1.051024496555328369e-01
-2.347416728734970093e-01
6.890595704317092896e-02
-2.393306046724319458e-01
-5.895147323608398438e-01
-2.493952214717864990e-02
-4.728119820356369019e-02
-1.986352540552616119e-02
1.013671234250068665e-01
1.116660758852958679e-01
-1.002459153532981873e-01
4.869231581687927246e-02
-8.686113357543945312e-02
-4.253409802913665771e-01
1.979072391986846924e-01
-5.708173513412475586e-01
-1.772916018962860107e-01
2.240072004497051239e-02
-2.763930261135101318e-01
-2.229848653078079224e-01
2.339937537908554077e-01
-1.979541927576065063e-01
1.361464262008666992e-01
-6.256000697612762451e-02
-1.051255241036415100e-01
2.268310785293579102e-01
1.824256964027881622e-02
2.241074889898300171e-01
4.489382728934288025e-02
2.384343594312667847e-01
-2.816229760646820068e-01
-1.130068778991699219e+00
-1.267888844013214111e-01
5.428811535239219666e-02
-5.959830060601234436e-02
-2.765494212508201599e-02
-9.883310645818710327e-02
-1.205803826451301575e-01
3.838096931576728821e-02
-9.015828371047973633e-02
-8.320681750774383545e-02
1.585173457860946655e-01
-3.316976428031921387e-01
-6.143127381801605225e-02
-2.336224354803562164e-02
-2.936234176158905029e-01
-6.949602812528610229e-02
-6.668919920921325684e-01
-1.722130328416824341e-01
-9.651092290878295898e-01
3.894450962543487549e-01
-4.891478121280670166e-01
2.876614332199096680e-01
1.323405802249908447e-01
5.346787627786397934e-03
-2.443321794271469116e-01
1.298727840185165405e-01
9.071376174688339233e-02
5.763236433267593384e-02
1.149562448263168335e-01
3.039497733116149902e-01
-8.904031515121459961e-01
1.909148693084716797e-01
-1.884351372718811035e-01
-3.042568266391754150e-01
-1.250742077827453613e-01
2.628628611564636230e-01
-1.061865836381912231e-01
8.761935681104660034e-02
-8.257817625999450684e-01
1.204301603138446808e-02
-3.833617866039276123e-01
2.835225686430931091e-02
-1.095396399497985840e+00
-7.128453850746154785e-01
-1.644574403762817383e-01
7.174486666917800903e-02
3.648499026894569397e-02
1.631496846675872803e-01
1.147154793143272400e-01
-2.998970821499824524e-02
-1.279154121875762939e-01
-2.014074921607971191e-01
2.377457916736602783e-01
-1.551571208983659744e-02
2.937152050435543060e-02
-3.979390263557434082e-01
-3.074299991130828857e-01
5.967411398887634277e-02
-4.743005931377410889e-01
-4.693117737770080566e-02
-5.614023208618164062e-01
-5.735646560788154602e-02
1.964998692274093628e-01
-2.241670340299606323e-02
9.567452967166900635e-02
-8.598307371139526367e-01
2.387087345123291016e-01
-5.702826976776123047e-01
-1.481447368860244751e-01
1.589898616075515747e-01
2.529729530215263367e-02
-8.747097253799438477e-01
-2.959846258163452148e-01
-2.526013553142547607e-01
-5.172242522239685059e-01
7.791987154632806778e-04
-2.407844811677932739e-01
1.055892333388328552e-01
3.088804781436920166e-01
1.563282608985900879e-01
-9.228415042161941528e-02
1.470378339290618896e-01
4.309319853782653809e-01
-4.708957076072692871e-01
-2.689368724822998047e-01
5.204396788030862808e-03
-1.395665258169174194e-01
1.083364263176918030e-01
-5.062522366642951965e-02
2.976333163678646088e-02
-3.558591902256011963e-01
-6.113095674663782120e-03
2.483750730752944946e-01
-3.458890914916992188e-01
1.333999633789062500e-01
-2.671542465686798096e-01
-2.422471046447753906e-01
2.801037132740020752e-01
-7.732353359460830688e-02
-2.446045428514480591e-01
-7.573377341032028198e-02
-6.021854281425476074e-02
-1.430645287036895752e-01
1.658210903406143188e-01
-5.505979061126708984e-01
-2.485501207411289215e-02
-1.294638961553573608e-01
-1.258175492286682129e+00
1.530242860317230225e-01
-1.781694591045379639e-02
-2.803467214107513428e-01
-8.289819955825805664e-02
-2.733420133590698242e-01
-3.125532269477844238e-01
-4.159109294414520264e-02
2.695211470127105713e-01
2.020042687654495239e-01
1.244522631168365479e-01
-1.473969668149948120e-01
-4.685846865177154541e-01
-1.878803372383117676e-01
-5.658846497535705566e-01
-4.495258927345275879e-01
2.345706522464752197e-01
1.159627921879291534e-02
-6.552728414535522461e-01
-2.144718915224075317e-01
-1.095563266426324844e-02
-6.919384598731994629e-01
-4.674417525529861450e-02
-6.553269624710083008e-01
-7.560161352157592773e-01
8.021678030490875244e-02
1.439962238073348999e-01
-7.514287829399108887e-01
-5.526745319366455078e-01
-8.157559037208557129e-01
-5.551013946533203125e-01
-7.152029871940612793e-01
-2.055751234292984009e-01
-9.820756316184997559e-01
-9.564650058746337891e-02
3.289118409156799316e-02
-1.205854937434196472e-01
-6.915686726570129395e-01
-8.367221802473068237e-02
-2.015336304903030396e-01
-5.238125324249267578e-01
-7.645708322525024414e-01
-1.971120089292526245e-01
2.395347952842712402e-01
1.093126833438873291e-01
-1.023849286139011383e-02
1.843993514776229858e-01
-3.651463985443115234e-01
6.381344795227050781e-02
-6.334929466247558594e-01
3.603379800915718079e-02
-1.020670011639595032e-01
-4.006227552890777588e-01
-6.785106062889099121e-01
-2.997616827487945557e-01
8.493706583976745605e-02
-1.826866567134857178e-01
-1.539921462535858154e-01
6.874702125787734985e-02
1.343580782413482666e-01
1.550061255693435669e-01
4.397006928920745850e-01
1.167080923914909363e-01
-3.993293046951293945e-01
-1.235238313674926758e-01
-1.745265126228332520e-01
-1.501928865909576416e-01
-4.232966527342796326e-02
-1.263336162082850933e-03
1.112221926450729370e-01
-1.686429262161254883e+00
7.776011526584625244e-02
-2.851215302944183350e-01
-2.478889971971511841e-01
-3.789877295494079590e-01
1.950115710496902466e-01
-2.027681469917297363e-01
-1.072313487529754639e-01
6.842066347599029541e-02
-2.222953736782073975e-01
3.493606150150299072e-01
-1.359300732612609863e+00
-7.733429223299026489e-02
-1.070020124316215515e-01
-1.730536222457885742e-01
5.141471326351165771e-02
-5.433954596519470215e-01
-7.486514747142791748e-02
6.688263732939958572e-03
1.647801548242568970e-01
-8.071455173194408417e-03
-1.957590132951736450e-02
-1.700260043144226074e-01
-1.076580956578254700e-03
2.643308937549591064e-01
1.330559998750686646e-01
1.908870637416839600e-01
-4.473602473735809326e-01
-2.555554509162902832e-01
2.582044526934623718e-02
-1.486049294471740723e-01
-3.624152541160583496e-01
-1.406395286321640015e-01
-3.468628227710723877e-01
-4.894927144050598145e-01
-3.990966677665710449e-01
-4.801550805568695068e-01
2.479069679975509644e-01
-5.141242966055870056e-02
3.637998551130294800e-02
1.416313052177429199e-01
-2.673938870429992676e-02
-6.545843183994293213e-02
3.076838515698909760e-02
2.697165012359619141e-01
-7.946415990591049194e-02
-5.808126330375671387e-01
-9.840554594993591309e-01
1.643504202365875244e-01
2.863390147686004639e-01
2.379148751497268677e-01
-2.197623103857040405e-01
-1.235529407858848572e-01
1.603205353021621704e-01
5.668840929865837097e-02
3.073471486568450928e-01
1.512912064790725708e-01
-8.511223196983337402e-01
-1.126556515693664551e+00
1.026709154248237610e-01
6.118953227996826172e-02
1.493837982416152954e-01
2.427036315202713013e-01
2.503840997815132141e-02
-8.184520155191421509e-02
1.846839338541030884e-01
-3.380519151687622070e-01
-3.535681366920471191e-01
2.862255088984966278e-02
-3.748117089271545410e-01
-2.517985701560974121e-01
1.164427697658538818e-01
-1.068259477615356445e-01
-1.105448007583618164e+00
1.893848031759262085e-01
-3.649564385414123535e-01
-4.336160421371459961e-02
2.201019972562789917e-01
-9.840900450944900513e-02
-6.508865207433700562e-02
-8.737437129020690918e-01
-3.894007578492164612e-02
-2.026016265153884888e-01
8.569852262735366821e-02
1.739749759435653687e-01
-3.722369298338890076e-02
-4.738068878650665283e-01
-2.470529377460479736e-01
3.003554940223693848e-01
-2.604881525039672852e-01
-1.419124245643615723e+00
-1.501217335462570190e-01
-1.493091695010662079e-02
1.662530004978179932e-02
-9.407129883766174316e-02
-8.723999857902526855e-01
-3.443588316440582275e-01
-2.232723981142044067e-01
-3.616331145167350769e-02
2.985644042491912842e-01
1.526888161897659302e-01
2.644152007997035980e-02
-7.876401543617248535e-01
-2.865673303604125977e-01
-1.030322685837745667e-01
-1.076921343803405762e+00
1.285607814788818359e-01
2.147707715630531311e-02
-2.855390310287475586e-01
9.330762922763824463e-02
6.871096789836883545e-02
-1.170304775238037109e+00
-4.675491154193878174e-01
-6.319949626922607422e-01
-4.051180481910705566e-01
2.363368868827819824e-02
9.218957275152206421e-02
-7.171601653099060059e-01
-8.333252072334289551e-01
-5.682669878005981445e-01
-1.170940756797790527e+00
-4.037104845046997070e-01
3.339506387710571289e-01
-9.154756069183349609e-01
-1.323888152837753296e-01
-5.674402117729187012e-01
-2.172114551067352295e-01
-1.838067024946212769e-01
3.108195066452026367e-01
2.379828318953514099e-02
2.990658581256866455e-01
3.902387022972106934e-01
-4.330554008483886719e-01
-6.869307756423950195e-01
6.761766970157623291e-02
2.891329228878021240e-01
-6.271116137504577637e-01
8.041866868734359741e-02
5.826351046562194824e-02
-3.764870464801788330e-01
-1.677161902189254761e-01
7.162666320800781250e-02
-6.619668006896972656e-02
-6.759156584739685059e-01
-1.685863360762596130e-02
1.869314163923263550e-01
2.748792767524719238e-01
-3.364342749118804932e-01
7.046921551227569580e-02
2.999453432857990265e-02
4.912920594215393066e-01
-2.400858849287033081e-01
7.114810496568679810e-02
-6.372765898704528809e-01
-2.578929364681243896e-01
-1.064267873764038086e+00
-1.213538050651550293e-01
-2.702732086181640625e-01
-2.822801172733306885e-01
6.287726759910583496e-02
-7.034372538328170776e-02
3.493060544133186340e-02
3.207062482833862305e-01
1.536873877048492432e-01
-6.424722671508789062e-01
-7.832668423652648926e-01
-5.739993453025817871e-01
-1.474451571702957153e-01
-1.394031405448913574e+00
2.697594165802001953e-01
3.288261294364929199e-01
-2.584422826766967773e-01
5.769883841276168823e-02
-2.310017049312591553e-01
-2.910889089107513428e-01
-7.768173217773437500e-01
1.805618703365325928e-01
-8.056618571281433105e-01
7.543529570102691650e-02
-1.063877940177917480e+00
1.714510172605514526e-01
1.017779856920242310e-01
-1.509478539228439331e-01
1.329319179058074951e-01
-2.602541744709014893e-01
-1.470903679728507996e-02
-5.007153004407882690e-02
-6.649726033210754395e-01
9.577415585517883301e-01
2.898626588284969330e-02
1.279541701078414917e-01
-1.667421758174896240e-01
6.447903066873550415e-02
-7.715209126472473145e-01
-2.052731364965438843e-01
6.289856135845184326e-02
1.821699738502502441e-01
-6.932405382394790649e-02
-1.665985882282257080e-01
-1.200555205345153809e+00
-2.134006619453430176e-01
6.312584131956100464e-02
-2.704285979270935059e-01
4.240234494209289551e-01
1.680577993392944336e-01
9.336383640766143799e-02
-7.038931250572204590e-01
5.642685890197753906e-01
-7.191713899374008179e-02
-7.060430645942687988e-01
-7.125101238489151001e-02
-1.105874404311180115e-02
-5.461232066154479980e-01
-4.915846139192581177e-02
-2.340160012245178223e-01
-9.805301576852798462e-02
8.899353444576263428e-02
-5.311644822359085083e-02
-1.667426973581314087e-01
-9.732811450958251953e-01
-2.576382830739021301e-02
-1.123984530568122864e-01
-2.765070796012878418e-01
-1.162980794906616211e-01
-1.015637397766113281e+00
-1.275712549686431885e-01
6.302525103092193604e-02
1.146609112620353699e-01
-7.624012827873229980e-01
-8.882216811180114746e-01
-6.049748659133911133e-01
-4.067555665969848633e-01
-1.044129252433776855e+00
-1.638291925191879272e-01
-2.618756294250488281e-01
-1.940049231052398682e-01
6.360109150409698486e-02
1.575175672769546509e-02
4.606382921338081360e-03
-1.021304249763488770e+00
-1.179140582680702209e-01
-2.957354784011840820e-01
-1.380946859717369080e-02
-1.831041574478149414e+00
1.989100128412246704e-01
8.973736315965652466e-02
1.082274988293647766e-01
3.481122478842735291e-02
-2.400612384080886841e-01
4.957719892263412476e-02
-1.837237954139709473e+00
-5.194296836853027344e-01
-2.659387700259685516e-02
-1.129832938313484192e-01
-8.130941390991210938e-01
-1.240098476409912109e-01
-2.411281466484069824e-01
5.702224373817443848e-02
-8.396821469068527222e-02
-2.141169011592864990e-01
1.485781967639923096e-01
8.778590708971023560e-02
-6.465609669685363770e-01
-5.696006864309310913e-02
-2.700022757053375244e-01
-1.036041975021362305e-02
1.445877645164728165e-02
-2.368819564580917358e-01
2.443629354238510132e-01
-3.282293677330017090e-02
2.112768292427062988e-01
-8.367291688919067383e-01
-7.449878007173538208e-02
-2.345797605812549591e-03
-1.550199240446090698e-01
-1.428251385688781738e+00
2.080882489681243896e-01
3.943625837564468384e-02
-5.451569557189941406e-01
1.344960480928421021e-01
-6.652553677558898926e-01
-6.160536035895347595e-02
-3.594321012496948242e-01
-1.956999450922012329e-01
1.626928569748997688e-03
-4.585690423846244812e-02
-3.517592092975974083e-03
7.362784445285797119e-02
-2.310056239366531372e-01
-6.684667617082595825e-02
1.110535711050033569e-01
3.862156532704830170e-03
-1.174728989601135254e+00
-7.402359247207641602e-01
-1.937743276357650757e-01
-8.222771883010864258e-01
-2.143081575632095337e-01
-2.590404748916625977e-01
-1.064257547259330750e-01
1.334237586706876755e-02
-9.957287460565567017e-03
2.184447348117828369e-01
-7.460135966539382935e-02
-2.814975082874298096e-01
-1.192375943064689636e-01
4.342643916606903076e-02
-2.291745990514755249e-01
-1.468233823776245117e+00
2.035565376281738281e-01
1.319470703601837158e-01
-1.547385096549987793e+00
-7.157374173402786255e-02
-3.848266005516052246e-01
-7.789271473884582520e-01
-1.122302785515785217e-01
-1.102023363113403320e+00
-3.015457689762115479e-01
-1.042019486427307129e+00
-4.422920048236846924e-01
9.206398576498031616e-02
-1.338422000408172607e-01
-1.816660910844802856e-02
2.935290709137916565e-02
-1.063113808631896973e-01
-7.279542684555053711e-01
-6.891379952430725098e-01
-2.446697354316711426e-01
4.795286059379577637e-02
-7.265931963920593262e-01
9.755202382802963257e-02
2.497349679470062256e-01
-8.858516812324523926e-02
3.730783611536026001e-02
-1.767011582851409912e-01
6.580883264541625977e-02
-9.303769469261169434e-01
3.528631031513214111e-01
-4.038019776344299316e-01
-7.029847055673599243e-02
-8.200468420982360840e-01
-2.779638767242431641e-01
7.331441342830657959e-02
1.476071309298276901e-02
4.756244719028472900e-01
-1.956558078527450562e-01
5.066012740135192871e-01
2.147143781185150146e-01
-4.786451458930969238e-01
-1.948132514953613281e-01
-7.511129379272460938e-01
2.926329970359802246e-01
-3.655536174774169922e-01
1.028539389371871948e-01
-5.186659097671508789e-01
-1.461850553750991821e-01
2.564387023448944092e-01
3.175472617149353027e-01
-9.055028110742568970e-02
-1.507779955863952637e-01
-7.686467170715332031e-01
-1.795549690723419189e-01
1.153023764491081238e-01
-2.932166159152984619e-01
4.187683761119842529e-01
1.466048210859298706e-01
1.481246352195739746e-01
2.187902629375457764e-01
1.567557901144027710e-01
-1.475045531988143921e-01
-6.627336740493774414e-01
5.212796851992607117e-02
-7.563228905200958252e-02
1.292073726654052734e-01
4.028563573956489563e-02
1.124548073858022690e-02
-1.933285593986511230e-01
1.192202270030975342e-01
-7.202199697494506836e-01
-2.746307477355003357e-02
-1.590751558542251587e-01
-1.982145458459854126e-01
1.000420004129409790e-02
-1.116048917174339294e-01
-2.533531785011291504e-01
1.655437946319580078e-01
5.485026538372039795e-02
6.747229099273681641e-01
2.825430333614349365e-01
-1.022991240024566650e-01
4.516405612230300903e-02
4.674137234687805176e-01
9.270131587982177734e-02
-1.281779706478118896e-01
-1.935297250747680664e-01
-2.481198608875274658e-01
-7.000186443328857422e-01
6.467709690332412720e-02
2.734865993261337280e-02
-8.834045380353927612e-02
7.879012823104858398e-02
-1.023713231086730957e+00
1.718050092458724976e-01
2.884706258773803711e-01
-1.155522614717483521e-01
-8.385509252548217773e-01
-6.253667920827865601e-02
-3.493250580504536629e-03
1.880528479814529419e-01
1.828800141811370850e-01
-1.342842459678649902e+00
2.508041635155677795e-02
-8.706036806106567383e-01
-9.388305246829986572e-02
-2.395519018173217773e-01
-2.822661995887756348e-01
-4.484793841838836670e-01
9.813475608825683594e-02
3.259603679180145264e-01
5.557500198483467102e-02
2.883622050285339355e-01
-4.367149174213409424e-01
-3.038591444492340088e-01
-4.016895964741706848e-02
-1.071731530828401446e-04
-2.110400944948196411e-01
2.419311702251434326e-01
-1.445179879665374756e-01
-5.657675266265869141e-01
-2.043114304542541504e-01
1.483568102121353149e-01
-3.981129229068756104e-01
-7.585706114768981934e-01
6.803764402866363525e-02
2.768840491771697998e-01
1.510389596223831177e-01
-4.671998918056488037e-01
-7.542029023170471191e-01
1.090895831584930420e-01
2.550697028636932373e-01
-1.548038795590400696e-02
-1.866625845432281494e-01
5.579215288162231445e-02
-3.446939289569854736e-01
-5.993249639868736267e-02
-3.523804843425750732e-01
-3.138786852359771729e-01
1.331318169832229614e-01
1.106531247496604919e-01
-2.822409570217132568e-01
-4.268658459186553955e-01
-6.855317950248718262e-01
-7.507301121950149536e-02
1.369486898183822632e-01
1.107194572687149048e-01
1.356017887592315674e-01
-3.868958353996276855e-01
2.199953608214855194e-02
3.859392553567886353e-02
1.408881992101669312e-01
1.346934307366609573e-02
1.940954029560089111e-01
-6.970956176519393921e-02
-6.964843869209289551e-01
-2.500915229320526123e-01
9.974277019500732422e-02
-7.134878039360046387e-01
-1.956805773079395294e-02
1.807621270418167114e-01
-4.159077405929565430e-01
-2.566175349056720734e-02
-9.027021378278732300e-02
1.962202340364456177e-01
2.298054471611976624e-02
-4.893010556697845459e-01
1.655959337949752808e-01
-7.226845026016235352e-01
-2.355283498764038086e-01
-3.170891106128692627e-01
-5.967457294464111328e-01
-4.044118151068687439e-02
-2.573366165161132812e-01
9.621993638575077057e-03
2.723793033510446548e-03
1.473689228296279907e-01
-4.257878661155700684e-01
-4.084367454051971436e-01
3.389782831072807312e-02
-5.887616425752639771e-02
-7.100643217563629150e-02
-3.547665104269981384e-02
-4.425508156418800354e-02
-1.133611321449279785e+00
6.810660939663648605e-03
2.933198213577270508e-02
2.001710981130599976e-01
-8.334081768989562988e-01
-2.085136920213699341e-01
-1.493662893772125244e-01
6.633190810680389404e-02
-1.159209966659545898e+00
1.505485083907842636e-02
1.533180624246597290e-01
5.326848477125167847e-02
6.353845447301864624e-02
1.580483317375183105e-01
-4.391734674572944641e-02
-5.941122770309448242e-01
-3.381844758987426758e-01
-3.489026427268981934e-01
-1.570751219987869263e-01
-6.803693771362304688e-01
8.262519538402557373e-02
-6.341671943664550781e-01
6.620658934116363525e-02
6.447628885507583618e-02
7.658388465642929077e-03
4.449826180934906006e-01
-1.902826279401779175e-01
-1.269333243370056152e+00
-1.000564470887184143e-01
-3.483907133340835571e-02
-4.496399164199829102e-01
-1.559393554925918579e-01
-4.031380712985992432e-01
-3.734692633152008057e-01
2.249485999345779419e-01
-1.445069313049316406e-01
-1.085744649171829224e-01
-1.555724143981933594e+00
1.429578289389610291e-02
-1.111145783215761185e-02
-9.088896512985229492e-01
-1.072682514786720276e-01
5.652987957000732422e-02
-1.217082858085632324e+00
-1.269269585609436035e-01
-1.905217170715332031e-01
-3.223184347152709961e-01
4.154898598790168762e-02
-7.252411842346191406e-01
-3.681450486183166504e-01
-2.086534202098846436e-01
-2.307950258255004883e-01
-2.624903246760368347e-02
-1.102744638919830322e-01
3.200764954090118408e-02
-1.673790253698825836e-02
1.884572654962539673e-01
-7.978124022483825684e-01
-3.877651393413543701e-01
6.019580364227294922e-01
1.490325778722763062e-01
-4.062044322490692139e-01
-6.360197812318801880e-02
-1.179699972271919250e-01
-4.237228631973266602e-01
-1.999104768037796021e-02
-7.895339280366897583e-02
7.640694826841354370e-02
-9.115251302719116211e-01
-2.402056008577346802e-02
-3.038777969777584076e-02
2.793623805046081543e-01
-1.802410840988159180e+00
1.119047328829765320e-01
1.169783025979995728e-01
9.575555473566055298e-02
5.526573583483695984e-02
6.490211188793182373e-02
-1.161128163337707520e+00
-3.328660428524017334e-01
-8.521074652671813965e-01
-1.236645728349685669e-01
-3.315921500325202942e-02
-1.969619691371917725e-01
-6.317540407180786133e-01
-1.130236405879259109e-02
3.219930455088615417e-02
-1.891262829303741455e-01
-6.444901823997497559e-01
-3.711381461471319199e-03
-1.041785031557083130e-01
-2.720904350280761719e-02
9.124098718166351318e-02
-8.742847293615341187e-02
1.983140408992767334e-01
-9.619021415710449219e-02
-2.567671239376068115e-01
-1.357970386743545532e-01
1.655965112149715424e-02
-1.255809515714645386e-01
1.791439205408096313e-01
-9.774167090654373169e-02
7.834627479314804077e-02
-8.442335575819015503e-02
-1.322730034589767456e-01
-8.659797906875610352e-01
2.553138509392738342e-02
-1.443570256233215332e-01
-2.522245422005653381e-02
-2.843582630157470703e-01
-4.559759423136711121e-02
-3.343973308801651001e-03
-4.833867549896240234e-01
3.185072243213653564e-01
-1.493261009454727173e-01
1.765546039678156376e-03
-6.343097686767578125e-01
-1.000710725784301758e-01
-2.783071398735046387e-01
-6.885804235935211182e-02
9.725155541673302650e-04
-1.638979613780975342e-01
1.754462122917175293e-01
1.213460415601730347e-01
-3.830213546752929688e-01
1.180590614676475525e-01
-1.237989664077758789e-01
2.381062507629394531e-01
5.720861628651618958e-02
2.368502467870712280e-01
-2.692884067073464394e-03
-2.961013317108154297e-01
-7.428113818168640137e-01
-1.664846688508987427e-01
-2.879234552383422852e-01
-1.005124971270561218e-01
3.746573254466056824e-02
-6.765859723091125488e-01
-3.802725300192832947e-02
4.682287946343421936e-02
2.899934053421020508e-01
3.256567567586898804e-02
-9.964212775230407715e-02
3.285571634769439697e-01
7.517772912979125977e-02
-5.073797330260276794e-02
5.074348449707031250e-01
9.305141866207122803e-02
6.303383409976959229e-02
-2.069016844034194946e-01
-2.268814742565155029e-01
-3.226698338985443115e-01
2.212334796786308289e-02
1.087888106703758240e-01
3.113712668418884277e-01
-1.208849996328353882e-01
-3.775016367435455322e-01
2.182799428701400757e-01
-1.758668571710586548e-01
-8.218831568956375122e-02
-1.769482493400573730e-01
1.970572173595428467e-01
-1.700845547020435333e-03
-2.084350883960723877e-01
1.239308342337608337e-01
-9.222979545593261719e-01
-1.020394936203956604e-01
4.512191936373710632e-02
-2.511943280696868896e-01
-1.070146784186363220e-01
-1.018756404519081116e-01
-8.530667424201965332e-01
8.636343479156494141e-02
-1.166178062558174133e-01
-1.192561149597167969e+00
-1.237950101494789124e-01
-1.375771313905715942e-01
-7.213833928108215332e-02
-6.258985400199890137e-02
2.223032563924789429e-01
1.296196728944778442e-01
1.196294724941253662e-01
1.383983343839645386e-01
-3.278826475143432617e-01
-4.602904319763183594e-01
-4.080214351415634155e-02
5.704529583454132080e-02
1.917231455445289612e-02
3.477308154106140137e-02
5.675658211112022400e-02
-6.234307289123535156e-01
-1.851199120283126831e-01
-1.026043295860290527e+00
1.453135311603546143e-01
1.551540940999984741e-01
-3.512357473373413086e-01
1.989300251007080078e-01
-4.981848597526550293e-01
2.303274273872375488e-01
-9.552437812089920044e-02
-3.733385205268859863e-01
-3.867729008197784424e-01
-8.020929247140884399e-02
1.923629641532897949e-01
-6.976380944252014160e-02
-5.101378262042999268e-02
-6.105955243110656738e-01
-8.838127255439758301e-01
-2.347066253423690796e-01
5.864247679710388184e-01
-3.019485175609588623e-01
-2.760379910469055176e-01
-7.121985554695129395e-01
1.449605524539947510e-01
-2.546509169042110443e-02
-6.257007718086242676e-01
-5.945404171943664551e-01
-3.401987552642822266e-01
7.662514597177505493e-02
7.975395768880844116e-02
1.021923124790191650e-02
-2.427108883857727051e-01
-2.441770285367965698e-01
1.377982050180435181e-01
-1.456471383571624756e-01
6.016912683844566345e-02
-1.058830395340919495e-01
-1.224011301994323730e+00
-9.394450783729553223e-01
1.242069620639085770e-02
-4.651038944721221924e-01
-1.838027983903884888e-01
-6.264030933380126953e-02
2.424253225326538086e-01
-1.087521761655807495e-01
-1.107902303338050842e-01
1.708984188735485077e-02
1.251314766705036163e-02
-2.615464925765991211e-01
8.194445818662643433e-02
9.213727712631225586e-02
-3.220320045948028564e-01
1.462935060262680054e-01
-4.024446308612823486e-01
-7.641879469156265259e-02
-3.169732093811035156e-01
-3.316693753004074097e-02
-8.777115494012832642e-02
-5.407820940017700195e-01
-1.701741218566894531e-01
2.375357449054718018e-01
-2.871008589863777161e-02
-1.132506132125854492e-02
2.704605162143707275e-01
-6.182826161384582520e-01
-1.244729086756706238e-01
-6.863898038864135742e-01
-1.148737818002700806e-01
-2.673910260200500488e-01
-2.335680462419986725e-02
1.005060598254203796e-02
-7.652750611305236816e-01
1.546758692711591721e-02
2.998911142349243164e-01
-7.077779173851013184e-01
-6.983261108398437500e-01
1.693938374519348145e-01
-7.095487415790557861e-02
4.613898694515228271e-01
2.757273316383361816e-01
1.566607803106307983e-01
1.413013637065887451e-01
2.280805259943008423e-01
-2.186730317771434784e-02
-9.831369668245315552e-02
-9.600269794464111328e-01
7.406883686780929565e-02
-1.131796002388000488e+00
-1.430861055850982666e-01
-2.915847674012184143e-02
-2.541417479515075684e-01
1.919726431369781494e-01
-1.024752259254455566e-01
-1.826222836971282959e-01
-1.305169314146041870e-01
9.452622616663575172e-04
-4.267678260803222656e-01
-2.842995710670948029e-02
-1.245206370949745178e-01
-1.230949684977531433e-01
3.299867808818817139e-01
2.395296543836593628e-01
1.470359265804290771e-01
-9.372888803482055664e-01
-1.103323549032211304e-01
4.794180765748023987e-02
-7.299017161130905151e-02
-1.215133592486381531e-01
4.589402079582214355e-01
-4.571126103401184082e-01
1.693681627511978149e-01
2.551606297492980957e-01
-7.455433607101440430e-01
-1.664010435342788696e-02
-3.610126972198486328e-01
-3.180751204490661621e-01
-5.935331434011459351e-02
-4.489709734916687012e-01
-3.413032591342926025e-01
9.618715941905975342e-02
1.446847021579742432e-01
1.533322334289550781e-01
-9.164511412382125854e-02
-3.748074173927307129e-01
-2.046353369951248169e-01
1.770766973495483398e-01
7.447099685668945312e-02
4.742792844772338867e-01
-7.056274265050888062e-02
-1.304064840078353882e-01
-7.468717098236083984e-01
2.121983282268047333e-02
-9.474503993988037109e-02
5.854883417487144470e-02
-6.580387949943542480e-01
-1.095726266503334045e-01
1.135575696825981140e-01
3.015665709972381592e-01
-1.214321613311767578e+00
-3.837989866733551025e-01
-1.402312964200973511e-01
2.475481778383255005e-01
2.498545646667480469e-01
9.210135787725448608e-02
-4.123320281505584717e-01
-8.209283351898193359e-01
1.229986026883125305e-01
7.276160642504692078e-03
6.455865502357482910e-02
-4.158603772521018982e-02
1.762166321277618408e-01
-4.194876924157142639e-02
1.233504861593246460e-01
-1.880335956811904907e-01
-1.968499273061752319e-01
1.225589662790298462e-01
-2.298483550548553467e-01
-5.706405639648437500e-01
-3.081957399845123291e-01
-1.238435432314872742e-01
-8.888410329818725586e-01
-1.461363732814788818e-01
-7.848282158374786377e-02
-5.306122452020645142e-02
3.208453357219696045e-01
3.130538156256079674e-03
1.397146433591842651e-01
-1.022720456123352051e+00
-9.191119112074375153e-03
-3.679566085338592529e-02
-2.889148294925689697e-01
-2.629323899745941162e-01
5.136340484023094177e-02
-7.218078374862670898e-01
-1.260010749101638794e-01
9.856754541397094727e-02
-8.477931618690490723e-01
-1.360972046852111816e+00
-8.519350886344909668e-01
1.274692639708518982e-02
5.691337212920188904e-02
-2.707641422748565674e-01
-4.121353328227996826e-01
-2.573317587375640869e-01
-2.152344882488250732e-01
-9.767672419548034668e-01
-1.843160092830657959e-01
-3.279032707214355469e-01
1.086213141679763794e-01
1.772242411971092224e-02
-5.147528648376464844e-01
-1.321778595447540283e-01
-7.013306021690368652e-01
7.837869226932525635e-02
-5.372542142868041992e-01
5.320322513580322266e-02
-2.050582468509674072e-01
-1.120204687118530273e+00
-6.801411509513854980e-01
-6.663678288459777832e-01
-1.014223933219909668e+00
4.873858392238616943e-02
2.313615977764129639e-01
2.926041483879089355e-01
1.479491591453552246e-01
-2.823913693428039551e-01
1.493540257215499878e-01
-2.612585760653018951e-02
