-1.117711186408996582e+00
-7.471277117729187012e-01
-4.014919102191925049e-01
4.844963848590850830e-01
-1.444295346736907959e-01
4.699629843235015869e-01
-5.805740952491760254e-01
-2.236427813768386841e-01
-1.697041839361190796e-01
4.221727848052978516e-01
-5.586529374122619629e-01
-8.056348562240600586e-01
-6.064612269401550293e-01
-3.207697272300720215e-01
-5.107960104942321777e-01
3.196657896041870117e-01
2.549893260002136230e-01
-1.111788034439086914e+00
3.027974069118499756e-01
2.415520250797271729e-01
2.761580646038055420e-01
-7.818164825439453125e-01
-4.891835153102874756e-01
-4.903123676776885986e-01
-2.874744534492492676e-01
-5.829752087593078613e-01
-3.977441787719726562e-01
1.884792745113372803e-01
2.038855552673339844e-01
2.648890614509582520e-01
-1.325385451316833496e+00
-6.764252781867980957e-01
-2.536050975322723389e-01
3.916702568531036377e-01
-2.139397114515304565e-01
3.473334610462188721e-01
-3.649668097496032715e-01
3.033166825771331787e-01
2.566765546798706055e-01
2.845346331596374512e-01
-3.768240213394165039e-01
-1.126718163490295410e+00
-4.867331981658935547e-01
3.070337474346160889e-01
-4.055731892585754395e-01
3.164450824260711670e-01
-3.448036909103393555e-01
-5.988192558288574219e-01
-2.809804379940032959e-01
3.068681061267852783e-01
-7.673017978668212891e-01
3.792513906955718994e-01
4.214383661746978760e-01
4.044516384601593018e-01
-3.981890082359313965e-01
-3.418923020362854004e-01
-3.323969841003417969e-01
-4.690835997462272644e-02
-2.974845468997955322e-01
-5.989010334014892578e-01
-1.783967733383178711e+00
1.475708186626434326e-01
-2.675431370735168457e-01
1.825615465641021729e-01
1.475682854652404785e-01
-5.427684187889099121e-01
-6.806951165199279785e-01
1.769049316644668579e-01
-8.130736351013183594e-01
-3.361051380634307861e-01
-9.325224161148071289e-01
-2.376051247119903564e-01
1.687834262847900391e-01
2.492599189281463623e-01
-4.596007466316223145e-01
2.213287353515625000e-01
-6.795594692230224609e-01
2.087930589914321899e-01
-6.807850599288940430e-01
-1.441663950681686401e-01
-1.054796695709228516e+00
1.839498132467269897e-01
-6.666271686553955078e-01
-7.569535970687866211e-01
1.988403946161270142e-01
-7.085945010185241699e-01
-8.587687611579895020e-01
-4.000119268894195557e-01
-3.092793822288513184e-01
1.966486722230911255e-01
-8.433002233505249023e-01
1.455670595169067383e-01
-5.683875679969787598e-01
2.536141574382781982e-01
-5.920704007148742676e-01
2.733581364154815674e-01
1.884689927101135254e-01
-4.895928204059600830e-01
-4.289593696594238281e-01
-5.076694488525390625e-01
3.772740662097930908e-01
-7.084659337997436523e-01
-4.339571893215179443e-01
-4.845770597457885742e-01
3.627508878707885742e-01
3.469019234180450439e-01
3.532773852348327637e-01
-4.020554125308990479e-01
-3.063248097896575928e-01
3.094892203807830811e-01
-8.786040544509887695e-01
3.485292494297027588e-01
-3.331955373287200928e-01
-3.516267538070678711e-01
-7.484862208366394043e-02
-5.360631942749023438e-01
-1.313849329948425293e+00
4.248951077461242676e-01
-4.825415015220642090e-01
3.558602929115295410e-01
-7.196738123893737793e-01
-3.379748463630676270e-01
2.477347105741500854e-01
3.004462122917175293e-01
2.533672749996185303e-01
-2.893922030925750732e-01
-9.994239807128906250e-01
3.237900137901306152e-01
2.987290024757385254e-01
2.772433459758758545e-01
2.541228830814361572e-01
-9.206635355949401855e-01
-4.470517039299011230e-01
2.348064780235290527e-01
-9.357498288154602051e-01
2.523158490657806396e-01
2.756501436233520508e-01
-4.417561590671539307e-01
-3.128070235252380371e-01
-2.953355312347412109e-01
-6.014987230300903320e-01
2.718770503997802734e-01
-6.453455686569213867e-01
-5.469893813133239746e-01
-3.553850650787353516e-01
2.747189998626708984e-01
3.412045240402221680e-01
-9.770713448524475098e-01
3.339974284172058105e-01
-3.566288948059082031e-01
-7.830843925476074219e-01
-3.295243084430694580e-01
2.153999954462051392e-01
1.870661079883575439e-01
2.416748106479644775e-01
-5.460139513015747070e-01
-8.638343811035156250e-01
-1.877662390470504761e-01
-2.905879914760589600e-01
1.791443526744842529e-01
2.248688340187072754e-01
2.505644559860229492e-01
2.770135104656219482e-01
-4.688518643379211426e-01
2.307043671607971191e-01
-6.705609560012817383e-01
-3.133467733860015869e-01
2.017507404088973999e-01
-6.453406214714050293e-01
-2.385957688093185425e-01
-5.433253645896911621e-01
-1.440920531749725342e-01
4.259506165981292725e-01
-1.249571293592453003e-01
4.762196540832519531e-01
-2.298836261034011841e-01
-3.199478387832641602e-01
-1.673754602670669556e-01
4.942645132541656494e-01
8.702044934034347534e-02
-3.776563107967376709e-01
-5.861806869506835938e-01
-5.939397811889648438e-01
-1.315186023712158203e+00
3.562378883361816406e-01
1.899713724851608276e-01
3.270379304885864258e-01
-5.485000610351562500e-01
-7.162318378686904907e-02
3.018866479396820068e-01
-6.185804009437561035e-01
3.563946485519409180e-01
3.167282044887542725e-01
-2.854617536067962646e-01
-1.839703917503356934e-01
-3.367485702037811279e-01
-9.686435014009475708e-02
2.473355084657669067e-01
-5.404795408248901367e-01
-4.130498766899108887e-01
-1.358730673789978027e+00
2.315823882818222046e-01
-2.732104659080505371e-01
-4.680920839309692383e-01
2.258480042219161987e-01
2.145206332206726074e-01
-2.111484110355377197e-01
2.150306105613708496e-01
1.385788768529891968e-01
-3.524863719940185547e-02
3.576397597789764404e-01
-3.513272702693939209e-01
3.116232156753540039e-01
-2.549070119857788086e-01
-2.335267513990402222e-01
-4.962939321994781494e-01
-5.269182920455932617e-01
3.235947787761688232e-01
-5.612833499908447266e-01
2.133307605981826782e-01
-4.407943487167358398e-01
-3.830443024635314941e-01
1.843706071376800537e-01
-4.135301411151885986e-01
-2.511400282382965088e-01
-3.924512565135955811e-01
2.182813882827758789e-01
-6.653645634651184082e-01
-5.393297076225280762e-01
-1.089648008346557617e+00
3.155554831027984619e-01
1.354304701089859009e-01
2.215381711721420288e-01
-5.261480212211608887e-01
-4.177955687046051025e-01
-3.537349402904510498e-01
2.590796649456024170e-01
-8.712406754493713379e-01
2.228293567895889282e-01
-4.785199761390686035e-01
-1.013484001159667969e+00
9.739019721746444702e-02
1.047534123063087463e-01
-1.581714451313018799e-01
-4.401323497295379639e-01
-9.298617243766784668e-01
-1.216003179550170898e+00
1.212608218193054199e-01
-6.970469951629638672e-01
6.465067714452743530e-02
-5.825352668762207031e-01
3.571099340915679932e-01
-1.977251917123794556e-01
-3.494072854518890381e-01
3.785674273967742920e-01
4.139590561389923096e-01
3.154008686542510986e-01
-3.044406175613403320e-01
-1.959818899631500244e-01
-4.377901554107666016e-02
-7.129756808280944824e-01
2.245134562253952026e-01
-6.751867532730102539e-01
-1.283965229988098145e+00
2.946315109729766846e-01
-6.235116720199584961e-01
2.546158730983734131e-01
-4.307689070701599121e-01
-3.399658799171447754e-01
2.449094206094741821e-01
3.314870297908782959e-01
-7.260196208953857422e-01
-2.962387502193450928e-01
-1.012783408164978027e+00
2.961292862892150879e-01
-2.137618958950042725e-01
3.265765607357025146e-01
-8.731971979141235352e-01
-3.710357248783111572e-01
-3.228870630264282227e-01
-6.216127276420593262e-01
2.199625521898269653e-01
2.574681937694549561e-01
2.524933218955993652e-01
-5.595568418502807617e-01
-2.948036193847656250e-01
1.755608618259429932e-01
-3.402549922466278076e-01
2.473727911710739136e-01
-7.255319952964782715e-01
1.446791552007198334e-02
1.150054261088371277e-01
-2.935491204261779785e-01
-5.712837353348731995e-02
1.280690729618072510e-01
1.549582779407501221e-01
1.616311222314834595e-01
2.707633674144744873e-01
-1.139533985406160355e-02
-1.559720039367675781e-01
-6.698676347732543945e-01
-2.293825000524520874e-01
-3.799126744270324707e-01
-3.999169468879699707e-01
3.231424689292907715e-01
-3.844324946403503418e-01
3.204536437988281250e-01
3.467607200145721436e-01
-5.472247004508972168e-01
1.890664249658584595e-01
-2.742958366870880127e-01
-2.847257554531097412e-01
3.544374704360961914e-01
-3.143616914749145508e-01
-1.890119910240173340e-01
-2.508024275302886963e-01
3.972981572151184082e-01
-6.425302028656005859e-01
-3.477049469947814941e-01
-1.062100529670715332e+00
