3.043902516365051270e-01
-2.202492058277130127e-01
1.752136498689651489e-01
2.728106640279293060e-02
4.833997786045074463e-01
3.023504912853240967e-01
-1.891556531190872192e-01
-5.562031641602516174e-02
-9.809315949678421021e-02
2.282240241765975952e-01
1.627598404884338379e-01
1.446219347417354584e-02
6.786806136369705200e-02
-1.499735116958618164e-01
1.281228195875883102e-02
2.886152267456054688e-01
-3.267969191074371338e-01
1.388431340456008911e-01
-4.293068945407867432e-01
-1.226516142487525940e-01
9.339489974081516266e-03
-1.833870112895965576e-01
5.285839736461639404e-02
1.932718306779861450e-01
-2.893493175506591797e-01
-2.602857947349548340e-01
1.050436869263648987e-01
6.615338474512100220e-02
-2.570741344243288040e-06
-5.139035359025001526e-02
2.818571329116821289e-01
6.125639751553535461e-02
3.938226997852325439e-01
-1.074014231562614441e-01
1.052304208278656006e-01
1.608730107545852661e-01
1.387794017791748047e-01
3.470990657806396484e-01
-1.083541195839643478e-02
-3.191556036472320557e-02
-4.912340939044952393e-01
3.074580729007720947e-01
1.590538173913955688e-01
1.048946902155876160e-01
-3.420054018497467041e-01
-1.119502186775207520e-01
-1.021589934825897217e-01
2.200236320495605469e-01
-1.628853678703308105e-01
2.506486177444458008e-01
-2.309805005788803101e-01
-5.529453977942466736e-03
-5.846050754189491272e-02
-1.511045992374420166e-01
4.823664668947458267e-03
-1.536655519157648087e-02
-2.132150530815124512e-02
-1.534893512725830078e-01
9.500739723443984985e-02
1.217537149786949158e-01
1.811588108539581299e-01
-4.842536523938179016e-02
-5.088159348815679550e-03
4.909541085362434387e-02
1.276191025972366333e-01
1.006094552576541901e-02
2.999254167079925537e-01
1.975010782480239868e-01
2.662737965583801270e-01
1.550774127244949341e-01
-7.518004626035690308e-02
-1.339432895183563232e-01
4.014203697443008423e-02
1.259644478559494019e-01
3.746411502361297607e-01
1.355583220720291138e-01
-2.778649032115936279e-01
-9.194483608007431030e-02
1.155292987823486328e-01
8.597981184720993042e-02
-1.143359541893005371e-01
-1.441652178764343262e-01
-7.220797985792160034e-02
-5.760289356112480164e-02
-8.711193501949310303e-02
1.045836657285690308e-01
-9.679872542619705200e-02
-1.752204634249210358e-02
8.322963863611221313e-02
4.262247681617736816e-02
2.083286792039871216e-01
3.848729729652404785e-01
1.840509027242660522e-01
-3.057694248855113983e-02
-8.799450099468231201e-02
-1.511924564838409424e-01
-5.456332582980394363e-03
-1.455344408750534058e-01
-1.322117745876312256e-01
8.516212552785873413e-02
-4.650490731000900269e-02
4.275574386119842529e-01
2.371480166912078857e-01
-2.754789292812347412e-01
4.477084875106811523e-01
2.486287057399749756e-01
2.262428104877471924e-01
2.736137807369232178e-01
-5.923284590244293213e-02
1.109544709324836731e-01
1.352746188640594482e-01
2.670651078224182129e-01
3.565210700035095215e-01
6.971220672130584717e-02
-2.185452431440353394e-01
-3.586550801992416382e-02
5.276347324252128601e-02
1.558474451303482056e-01
5.385808944702148438e-01
2.370288074016571045e-01
8.401034772396087646e-02
1.917372792959213257e-01
1.247487515211105347e-01
6.129966378211975098e-01
1.880209892988204956e-01
-2.970624715089797974e-03
8.762622624635696411e-02
1.524260640144348145e-01
1.609985530376434326e-01
-1.501622200012207031e-01
-2.921916730701923370e-02
2.028037905693054199e-01
2.254557907581329346e-01
1.403004378080368042e-01
5.078762769699096680e-01
4.951540380716323853e-02
-2.934076823294162750e-02
4.271137416362762451e-01
-3.296824917197227478e-02
3.530881404876708984e-01
1.894248835742473602e-02
1.865982860326766968e-01
2.161139249801635742e-01
-2.929808758199214935e-02
-2.093010246753692627e-01
-1.604338139295578003e-01
-2.613940276205539703e-02
4.456826299428939819e-02
-6.132711097598075867e-02
-1.821675300598144531e-01
4.134532436728477478e-02
-1.255984157323837280e-01
3.028368651866912842e-01
6.128484383225440979e-02
2.027959525585174561e-01
1.037262678146362305e-01
1.653683036565780640e-01
3.472724929451942444e-02
9.219318628311157227e-02
2.391972988843917847e-01
2.131872577592730522e-03
-4.749387502670288086e-02
1.316157132387161255e-01
1.994652450084686279e-01
-1.516426652669906616e-01
3.413482904434204102e-01
2.163090556859970093e-01
3.031723899766802788e-03
2.588573284447193146e-02
3.099419474601745605e-01
-9.718599915504455566e-02
6.805185973644256592e-02
1.138894259929656982e-01
-5.782166868448257446e-02
2.028819024562835693e-01
-1.624599844217300415e-01
2.186428010463714600e-02
-1.974626332521438599e-01
1.363035738468170166e-01
1.102449670433998108e-01
-1.314356178045272827e-01
1.260486394166946411e-01
4.338741675019264221e-02
-1.151724979281425476e-01
4.619788378477096558e-02
1.361756324768066406e-01
8.376821875572204590e-02
3.187523782253265381e-02
4.746148884296417236e-01
2.792916027829051018e-03
7.863421738147735596e-02
4.358640685677528381e-02
3.589943647384643555e-01
-1.391445249319076538e-01
2.841111719608306885e-01
2.060942649841308594e-01
2.948008179664611816e-01
-3.770617768168449402e-02
2.640731036663055420e-01
1.003005132079124451e-01
-4.791723191738128662e-02
2.205005437135696411e-01
2.274487912654876709e-01
1.413094699382781982e-01
-2.016713321208953857e-01
1.297831088304519653e-01
3.204904496669769287e-01
-1.088039875030517578e-01
3.653978928923606873e-03
8.942092955112457275e-02
-7.884124666452407837e-02
-1.121414452791213989e-01
1.852532476186752319e-01
-3.145039379596710205e-01
1.042397096753120422e-01
-9.778489917516708374e-02
4.342215135693550110e-02
-3.627078980207443237e-02
4.267767667770385742e-01
2.722534537315368652e-01
3.658639639616012573e-02
-5.053583905100822449e-02
-1.951372995972633362e-02
-4.679155722260475159e-02
1.165543496608734131e-01
5.980033054947853088e-02
1.970304697751998901e-01
2.037881314754486084e-01
5.567322671413421631e-02
-5.936505738645792007e-03
-1.588032580912113190e-02
-1.253243237733840942e-01
2.830786108970642090e-01
2.301453053951263428e-01
-1.088337413966655731e-02
4.783370532095432281e-03
-6.236207555048167706e-04
-1.627859426662325859e-03
2.649939656257629395e-01
7.909882068634033203e-02
7.572235912084579468e-02
1.130311936140060425e-01
1.961868554353713989e-01
-8.763261139392852783e-03
8.602461218833923340e-02
-1.201632171869277954e-01
1.432229280471801758e-01
-3.404148388653993607e-03
1.795045286417007446e-01
4.397758096456527710e-02
1.678640246391296387e-01
2.353523671627044678e-01
1.422238200902938843e-01
5.704802274703979492e-02
1.372540593147277832e-01
3.150025755167007446e-02
2.269613742828369141e-01
-2.362493611872196198e-02
1.602581888437271118e-01
6.570876836776733398e-01
2.350810319185256958e-01
1.719425767660140991e-01
-4.699585959315299988e-02
4.797599911689758301e-01
4.181907698512077332e-02
2.070843577384948730e-01
-7.951790839433670044e-02
3.106085956096649170e-01
1.193233877420425415e-01
4.440106749534606934e-01
5.329053103923797607e-02
-2.576692402362823486e-01
3.870865330100059509e-02
-1.253154724836349487e-01
-1.642909646034240723e-01
-5.416603758931159973e-03
-1.128898635506629944e-01
-1.356617063283920288e-01
-5.590144544839859009e-02
-1.096408516168594360e-01
1.323567628860473633e-01
-1.880100965499877930e-01
-7.833809591829776764e-03
2.176085114479064941e-01
2.766004800796508789e-01
4.820687696337699890e-02
1.945628076791763306e-01
2.262466102838516235e-01
3.099190890789031982e-01
1.693378016352653503e-02
2.701912522315979004e-01
3.366055190563201904e-01
4.873307049274444580e-01
2.349238246679306030e-01
-5.381573364138603210e-02
-3.165162205696105957e-01
4.663786292076110840e-01
1.835723072290420532e-01
3.556018173694610596e-01
4.299918413162231445e-01
6.914088129997253418e-02
-1.162559911608695984e-01
4.001565873622894287e-01
-3.150939345359802246e-01
1.518876254558563232e-01
-5.162952542304992676e-01
1.675923317670822144e-01
-7.117810100317001343e-02
-1.083819717168807983e-01
-2.167543768882751465e-01
-1.874993592500686646e-01
1.803510449826717377e-02
2.102833390235900879e-01
7.436932064592838287e-03
2.550019323825836182e-01
2.076422423124313354e-01
-2.657258212566375732e-01
4.841576144099235535e-02
1.090962216258049011e-01
-3.269427716732025146e-01
-2.263847738504409790e-02
-2.227877266705036163e-02
6.066661444492638111e-04
-2.894894592463970184e-02
1.799432188272476196e-02
2.979447320103645325e-02
5.546132475137710571e-02
-2.267804369330406189e-02
5.529289692640304565e-02
-4.269594699144363403e-02
4.008208587765693665e-02
2.457210421562194824e-02
4.344522580504417419e-02
1.249829679727554321e-02
-2.799900434911251068e-02
2.409525588154792786e-02
-5.512083414942026138e-03
-2.717394381761550903e-02
5.811730772256851196e-02
3.042839840054512024e-02
2.481715194880962372e-02
5.763100460171699524e-02
7.287765294313430786e-02
2.984455320984125137e-03
6.419747322797775269e-02
6.847881525754928589e-02
-2.763413265347480774e-02
8.918774314224720001e-03
3.747985884547233582e-02
2.887701801955699921e-02
-2.993128728121519089e-03
8.030870556831359863e-02
4.314299523830413818e-01
1.187685193144716322e-04
1.838880181312561035e-01
3.308188021183013916e-01
-7.911884039640426636e-02
6.756302714347839355e-02
1.508915424346923828e-01
5.086250305175781250e-01
-7.054549455642700195e-02
9.246001392602920532e-02
1.752743870019912720e-01
1.837674975395202637e-01
4.569151997566223145e-01
2.678301036357879639e-01
8.989105373620986938e-02
1.517610400915145874e-01
-7.559552043676376343e-02
1.220229119062423706e-01
1.698670536279678345e-01
1.069135963916778564e-02
-2.511073090136051178e-02
-2.301222532987594604e-01
4.861260578036308289e-02
1.087262853980064392e-01
6.924561411142349243e-02
9.959430247545242310e-02
8.938314020633697510e-02
1.792275756597518921e-01
2.899226844310760498e-01
-3.689752519130706787e-02
-3.608846664428710938e-02
1.568636298179626465e-01
2.858593463897705078e-01
3.883954137563705444e-02
-1.222867220640182495e-01
3.275888860225677490e-01
9.423549473285675049e-02
3.211889564990997314e-01
3.735080361366271973e-01
1.830586493015289307e-01
9.216097742319107056e-02
2.405248880386352539e-01
8.941032737493515015e-02
4.339125379920005798e-02
5.902571976184844971e-02
3.673599958419799805e-01
1.973592340946197510e-01
7.585553824901580811e-02
-1.479003280401229858e-01
9.242648631334304810e-02
1.512613147497177124e-01
-6.333376467227935791e-02
2.062443643808364868e-01
-2.611349523067474365e-01
4.383237659931182861e-01
6.302507221698760986e-02
-2.615612931549549103e-02
8.284947276115417480e-02
1.574313491582870483e-01
1.939298808574676514e-01
5.929880738258361816e-01
-2.884010318666696548e-04
2.724845409393310547e-01
4.863277971744537354e-01
1.815793067216873169e-01
1.875497698783874512e-01
3.358777761459350586e-01
6.023680567741394043e-01
-6.345094740390777588e-02
2.403833717107772827e-01
4.785758852958679199e-01
5.101668238639831543e-01
-2.183301895856857300e-01
4.291215538978576660e-02
-1.969338804483413696e-01
1.728846877813339233e-01
1.131326779723167419e-01
2.554184794425964355e-01
1.940785944461822510e-01
1.427039783447980881e-02
1.286379992961883545e-01
6.200092285871505737e-02
-1.587901562452316284e-01
-8.210068568587303162e-03
5.061543732881546021e-02
-6.781416386365890503e-02
1.159309968352317810e-01
1.472251862287521362e-01
2.916334383189678192e-02
7.979502528905868530e-02
-2.457576692104339600e-01
-1.817414760589599609e-01
5.216331481933593750e-01
-4.439614713191986084e-04
-1.281345933675765991e-01
2.186694741249084473e-01
3.825821280479431152e-01
-1.143526360392570496e-01
4.114508256316184998e-02
2.363973259925842285e-01
2.212260216474533081e-01
2.509689927101135254e-01
7.107838988304138184e-02
8.539768308401107788e-02
-9.332834184169769287e-02
3.731717765331268311e-01
8.904154412448406219e-03
-2.909502200782299042e-02
-9.170955419540405273e-02
1.441874206066131592e-01
1.631755977869033813e-01
-7.984926924109458923e-03
-6.878682971000671387e-02
5.337612330913543701e-02
1.196459904313087463e-01
-1.350243687629699707e-01
-5.065324902534484863e-01
-2.655683457851409912e-01
-5.771763250231742859e-02
-1.751874387264251709e-02
1.364454627037048340e-01
-1.654619909822940826e-02
-2.338758856058120728e-01
-2.231723256409168243e-02
1.741382181644439697e-01
-5.027123540639877319e-02
-2.972807884216308594e-01
-1.476127058267593384e-01
2.213165760040283203e-01
1.896884590387344360e-01
3.616374731063842773e-02
4.596949219703674316e-01
1.171691492199897766e-01
-1.605462580919265747e-01
6.237100437283515930e-02
1.146376132965087891e-01
1.893952190876007080e-01
3.657187521457672119e-01
1.603114902973175049e-01
1.100026294589042664e-01
1.377607733011245728e-01
1.652123630046844482e-01
5.181216001510620117e-01
5.872701853513717651e-02
-4.201880395412445068e-01
9.014251641929149628e-03
2.719737589359283447e-01
3.926147893071174622e-02
3.994052112102508545e-02
-3.042370080947875977e-01
-1.334046125411987305e-01
-2.717987298965454102e-01
8.942387998104095459e-02
4.429543316364288330e-01
5.206946730613708496e-01
2.753345109522342682e-02
1.284612864255905151e-01
-4.743036627769470215e-02
2.567009925842285156e-01
-5.798556655645370483e-02
-4.487013071775436401e-02
1.601319946348667145e-02
-3.002958893775939941e-01
-6.864433735609054565e-02
-5.067657679319381714e-02
1.213612034916877747e-01
-7.624492049217224121e-02
1.139102131128311157e-01
-8.565874397754669189e-02
8.067460358142852783e-02
-2.388569116592407227e-01
-1.595090180635452271e-01
7.353121042251586914e-02
2.297178283333778381e-02
-7.845849543809890747e-02
2.774225473403930664e-01
2.427842468023300171e-01
2.472107261419296265e-01
-4.390421509742736816e-01
-4.458625614643096924e-02
-5.964568816125392914e-03
3.625349998474121094e-01
1.395305246114730835e-01
1.898201107978820801e-01
9.348998777568340302e-03
-2.340482771396636963e-01
-1.900352686643600464e-01
-2.571466267108917236e-01
9.954316914081573486e-02
-2.149528823792934418e-02
-2.236241102218627930e-01
-4.917223379015922546e-02
7.237501144409179688e-01
1.640069335699081421e-01
4.220203757286071777e-01
5.896855592727661133e-01
-2.032515592873096466e-03
4.645620882511138916e-01
4.550938010215759277e-01
4.342962205410003662e-01
-1.678029149770736694e-01
3.452362418174743652e-01
2.596074938774108887e-01
2.970559149980545044e-02
2.054483443498611450e-01
3.191832602024078369e-01
4.190253019332885742e-01
-1.284905821084976196e-01
-1.522386372089385986e-01
-1.156892925500869751e-01
-3.790615499019622803e-01
1.204596739262342453e-02
6.676688790321350098e-02
1.492833495140075684e-01
1.519961804151535034e-01
2.026315331459045410e-01
1.237888857722282410e-01
-1.560183241963386536e-02
-2.634443938732147217e-01
3.254055380821228027e-01
4.214188158512115479e-01
-6.497935205698013306e-02
-2.667692601680755615e-01
1.861008107662200928e-01
4.461643472313880920e-02
-2.556394636631011963e-01
1.583279967308044434e-01
1.327973008155822754e-01
4.006770551204681396e-01
-1.580214202404022217e-01
9.216508269309997559e-02
-8.213879168033599854e-02
2.433938831090927124e-01
-9.061647951602935791e-02
-2.855461537837982178e-01
2.510040104389190674e-01
-2.050116099417209625e-02
-2.278516441583633423e-01
4.291933774948120117e-02
1.102647483348846436e-01
2.465544342994689941e-01
-3.923743665218353271e-01
7.019540667533874512e-02
-2.949369885027408600e-02
1.056865043938159943e-02
3.573131561279296875e-01
-9.988357871770858765e-02
-3.643421828746795654e-01
1.817438304424285889e-01
-1.443664282560348511e-01
1.056278795003890991e-01
2.447378337383270264e-01
-6.039856374263763428e-02
-4.714240878820419312e-02
2.024036049842834473e-01
-2.186188697814941406e-01
1.402394622564315796e-01
-6.566141545772552490e-02
-1.311287004500627518e-02
2.867828607559204102e-01
-1.180681735277175903e-01
2.525453269481658936e-01
2.597427368164062500e-01
8.830156922340393066e-02
-2.628732239827513695e-03
6.679859012365341187e-02
-1.120035499334335327e-01
3.880493342876434326e-02
-6.963249761611223221e-03
1.962272524833679199e-01
-3.275717049837112427e-02
2.003453373908996582e-01
8.276112377643585205e-02
1.122527867555618286e-01
4.514520242810249329e-02
4.696270450949668884e-02
-3.919976204633712769e-02
-1.431584358215332031e-01
2.075392752885818481e-01
4.544969648122787476e-02
-9.031277149915695190e-02
-1.205333471298217773e-01
1.422318667173385620e-01
2.846191404387354851e-03
3.058171570301055908e-01
3.768998011946678162e-02
1.772281825542449951e-01
2.554491460323333740e-01
2.104474157094955444e-01
5.491302907466888428e-02
-5.305371433496475220e-02
8.906782604753971100e-03
1.576737873256206512e-02
3.487762436270713806e-02
5.954702943563461304e-02
3.850511610507965088e-01
5.119606852531433105e-02
8.282055705785751343e-02
-3.296477720141410828e-02
5.122993886470794678e-02
-2.595019293949007988e-03
1.304625421762466431e-01
-9.219408966600894928e-03
1.110322475433349609e-01
1.245762258768081665e-01
7.042232435196638107e-03
-4.576742276549339294e-02
-4.718960449099540710e-02
-7.232612930238246918e-03
-5.812684446573257446e-02
1.147650107741355896e-01
2.456985227763652802e-02
-6.928194779902696609e-03
-2.519636787474155426e-02
1.858374103903770447e-03
1.699909940361976624e-02
4.245914518833160400e-02
-4.128251969814300537e-02
2.141655236482620239e-02
5.530525743961334229e-02
4.907066747546195984e-02
2.621894776821136475e-01
1.091949939727783203e-01
-1.745488643646240234e-01
2.880359888076782227e-01
4.525643587112426758e-01
-2.857505381107330322e-01
-2.052880823612213135e-02
-1.771520227193832397e-01
1.334588825702667236e-01
3.464393317699432373e-01
-8.143570274114608765e-02
-2.154136747121810913e-01
3.116423785686492920e-01
3.299727141857147217e-01
3.726891875267028809e-01
1.258773058652877808e-01
-2.845104932785034180e-01
-1.607438325881958008e-01
-4.587381333112716675e-02
1.604640781879425049e-01
-1.937562227249145508e-02
-7.914708927273750305e-03
5.640764161944389343e-02
-1.672663837671279907e-01
-3.252215385437011719e-01
2.642066478729248047e-01
1.743562966585159302e-01
2.357849180698394775e-01
-6.633272022008895874e-02
-1.059256121516227722e-01
1.133628487586975098e-01
2.397514134645462036e-01
-1.535211354494094849e-01
3.181769847869873047e-01
8.945103734731674194e-02
8.499904721975326538e-02
2.410287708044052124e-01
-1.071707252413034439e-02
1.171385645866394043e-01
-1.376239508390426636e-01
5.298596620559692383e-01
-1.384446620941162109e-01
-2.058095633983612061e-01
-9.057533740997314453e-02
1.649308353662490845e-01
5.555569007992744446e-02
-1.302448809146881104e-01
-3.452491462230682373e-01
5.800375714898109436e-03
3.652863949537277222e-02
-1.751527935266494751e-02
8.590139448642730713e-02
-1.302017420530319214e-01
9.131177514791488647e-02
-1.176171004772186279e-01
-1.152848079800605774e-01
-1.142152398824691772e-02
2.067179232835769653e-01
1.170013770461082458e-01
1.010845899581909180e-01
1.675044931471347809e-02
9.847267717123031616e-02
-9.302787482738494873e-02
1.039611026644706726e-01
-1.585465110838413239e-02
3.488695323467254639e-01
1.357583999633789062e-01
3.747401833534240723e-01
4.284034967422485352e-01
1.633314043283462524e-01
2.778768539428710938e-01
-2.950585819780826569e-02
-5.029132589697837830e-02
-4.506560564041137695e-01
-2.530744858086109161e-02
-5.286998301744461060e-02
-1.765947490930557251e-01
3.869042545557022095e-02
-9.691874682903289795e-02
9.929855912923812866e-02
1.613518595695495605e-01
-2.801738083362579346e-01
-8.103331923484802246e-02
7.016671448945999146e-02
-7.522009313106536865e-02
-3.151171803474426270e-01
-4.794941470026969910e-02
5.602718144655227661e-02
-1.781252175569534302e-01
-1.812994629144668579e-01
-9.925249963998794556e-02
-1.727011799812316895e-01
-1.010879874229431152e-02
-2.847438454627990723e-01
-2.761235833168029785e-01
4.895037412643432617e-01
1.593816429376602173e-01
5.722043290734291077e-02
2.306794971227645874e-01
5.797659754753112793e-01
3.312138020992279053e-01
-7.892244309186935425e-02
3.237083852291107178e-01
-2.053071111440658569e-01
7.243375778198242188e-01
-2.785415351390838623e-01
1.762970536947250366e-01
7.680421695113182068e-03
3.849833011627197266e-01
3.316120505332946777e-01
3.923521190881729126e-02
-3.531922698020935059e-01
-5.503882467746734619e-02
7.016590237617492676e-02
-5.531480163335800171e-02
-1.071848049759864807e-01
-3.473065793514251709e-01
1.572014242410659790e-01
-1.175228282809257507e-01
1.411399394273757935e-01
-8.384888619184494019e-02
3.393694758415222168e-02
-5.952631682157516479e-02
3.202163875102996826e-01
6.040442362427711487e-02
-1.160078793764114380e-01
1.390576809644699097e-01
3.909196853637695312e-01
-4.423841834068298340e-02
2.342187911272048950e-01
2.959261536598205566e-01
2.341920286417007446e-01
2.349684238433837891e-01
4.087892826646566391e-03
6.140995770692825317e-02
2.774092927575111389e-02
2.824777662754058838e-01
3.222817480564117432e-01
2.931849062442779541e-01
7.088572718203067780e-03
1.894869357347488403e-01
4.155158400535583496e-01
4.747479557991027832e-01
-1.259140819311141968e-01
-1.049600467085838318e-01
7.221215218305587769e-02
1.268558669835329056e-02
1.005741581320762634e-01
-2.812537550926208496e-01
-1.484141200780868530e-01
-4.243419170379638672e-01
3.439815640449523926e-01
3.734691441059112549e-01
3.092136681079864502e-01
1.211724653840065002e-01
3.909389972686767578e-01
-6.483894586563110352e-02
2.351943030953407288e-02
-1.003840267658233643e-01
2.267699539661407471e-01
9.323397278785705566e-02
2.541542649269104004e-01
1.256879866123199463e-01
1.945428252220153809e-01
-6.477152556180953979e-02
2.379356026649475098e-01
-3.692344576120376587e-02
1.478533148765563965e-01
3.171797990798950195e-01
5.388670042157173157e-02
4.431985914707183838e-01
-2.052973955869674683e-01
3.357625100761651993e-03
1.902123540639877319e-01
-8.959028124809265137e-02
-2.364986389875411987e-02
-2.726766169071197510e-01
3.614511340856552124e-02
-1.209110394120216370e-02
-1.068045571446418762e-01
-3.840892910957336426e-01
-2.178876101970672607e-01
-1.958986967802047729e-01
4.014738500118255615e-01
-5.127276107668876648e-02
1.621269807219505310e-02
6.372477114200592041e-02
-1.012157648801803589e-01
-9.967786027118563652e-04
1.091691926121711731e-01
-2.068785130977630615e-01
5.388119816780090332e-01
1.605993211269378662e-01
4.054060280323028564e-01
4.867236018180847168e-01
1.430438905954360962e-01
-1.515893787145614624e-01
1.568032503128051758e-01
2.524737119674682617e-01
5.587533582001924515e-03
2.354370653629302979e-01
1.157820746302604675e-01
4.892330765724182129e-01
4.368959367275238037e-02
3.503756523132324219e-01
1.696541458368301392e-01
-1.566648036241531372e-01
2.267695814371109009e-01
-1.776290088891983032e-01
-1.734008640050888062e-01
-3.549171611666679382e-02
5.241404473781585693e-02
-1.136680617928504944e-01
4.441612586379051208e-02
9.844078123569488525e-02
4.071213304996490479e-01
-8.723630756139755249e-02
-1.280730366706848145e-01
3.042611181735992432e-01
1.448389887809753418e-01
4.361956939101219177e-02
-4.989854618906974792e-02
1.833634451031684875e-05
3.895754814147949219e-01
3.020702600479125977e-01
1.030086278915405273e-01
5.934873968362808228e-02
2.632243931293487549e-01
2.607758939266204834e-01
3.149489462375640869e-01
-7.311081141233444214e-02
3.513745069503784180e-01
3.198090195655822754e-01
1.929157227277755737e-01
5.155410617589950562e-02
-1.002227663993835449e-01
2.700345814228057861e-01
3.203386962413787842e-01
-6.467536836862564087e-02
2.924187481403350830e-01
-4.775800183415412903e-02
-3.171723335981369019e-02
1.008633598685264587e-01
3.065526783466339111e-01
5.709415301680564880e-03
1.432440876960754395e-01
1.927561499178409576e-02
9.296009689569473267e-02
2.807458639144897461e-01
2.254443615674972534e-01
1.883599162101745605e-01
3.576838374137878418e-01
-1.463684253394603729e-02
9.596905112266540527e-02
1.365222632884979248e-01
-2.926375530660152435e-02
3.200983395799994469e-03
2.987720966339111328e-01
6.722233723849058151e-03
-1.384480744600296021e-01
-8.662242442369461060e-02
-3.445429727435112000e-02
4.949649795889854431e-02
2.771261380985379219e-03
-4.571449384093284607e-02
1.593437232077121735e-02
-4.214537143707275391e-02
1.934304833412170410e-01
-2.546235620975494385e-01
-3.390054404735565186e-02
2.490432709455490112e-01
1.641650311648845673e-02
2.513028383255004883e-01
1.904941797256469727e-01
8.689920604228973389e-02
5.852060019969940186e-02
1.138708442449569702e-01
1.508159339427947998e-01
1.617692261934280396e-01
-1.870149821043014526e-01
-2.117912024259567261e-01
-1.384598463773727417e-01
3.631502762436866760e-02
-2.061391770839691162e-01
2.558316849172115326e-02
5.206735059618949890e-02
3.309170901775360107e-01
5.703272223472595215e-01
1.237933188676834106e-01
1.009174436330795288e-01
7.972580939531326294e-02
2.177852839231491089e-01
4.012342095375061035e-01
2.109942883253097534e-01
6.111028045415878296e-02
3.493348509073257446e-02
4.924027621746063232e-01
3.035765886306762695e-01
2.866817116737365723e-01
-1.152066364884376526e-01
1.495916396379470825e-01
3.304045498371124268e-01
-1.945687383413314819e-01
-1.311245709657669067e-01
-6.190628558397293091e-02
-4.449410364031791687e-03
2.017758786678314209e-02
-3.475212678313255310e-02
-3.621702790260314941e-01
-6.519150733947753906e-02
-1.988994777202606201e-01
8.266438543796539307e-02
-1.306556072086095810e-02
4.280965328216552734e-01
1.308434158563613892e-01
1.384824365377426147e-01
-3.636283427476882935e-02
-6.351408362388610840e-02
-1.790869086980819702e-01
1.355971246957778931e-01
4.568090196698904037e-03
-4.044967889785766602e-02
2.970302999019622803e-01
2.767117507755756378e-02
3.667422533035278320e-01
2.367313504219055176e-01
1.043729018419981003e-03
1.957195401191711426e-01
8.752658218145370483e-02
-4.393863305449485779e-02
-1.114359218627214432e-02
2.689119800925254822e-02
2.075251191854476929e-01
-2.761764451861381531e-02
3.040266931056976318e-01
9.443695098161697388e-02
1.530115902423858643e-01
2.171823680400848389e-01
4.962246865034103394e-02
1.906597614288330078e-01
-1.598070561885833740e-02
-6.154555454850196838e-02
-5.548816919326782227e-02
3.415698558092117310e-02
3.937379717826843262e-01
2.218960076570510864e-01
-9.728486090898513794e-02
2.591710388660430908e-01
5.400622636079788208e-02
1.812597662210464478e-01
7.945694029331207275e-02
2.590031176805496216e-02
-2.221590131521224976e-01
1.120393723249435425e-01
-7.413482666015625000e-02
6.558535993099212646e-02
3.246923685073852539e-01
2.768415808677673340e-01
-9.591699391603469849e-02
-1.366353332996368408e-01
7.467240095138549805e-02
-1.732933335006237030e-02
-1.968088895082473755e-01
2.886406779289245605e-01
-1.528894063085317612e-02
-4.135808944702148438e-01
2.990577816963195801e-01
-3.423892557621002197e-01
-1.175643503665924072e-01
-2.868687734007835388e-02
-4.556367173790931702e-02
-3.115694224834442139e-01
-2.753820084035396576e-02
-1.810936480760574341e-01
8.946145884692668915e-03
-2.047576904296875000e-01
-1.246930062770843506e-01
-3.622831776738166809e-02
3.098065853118896484e-01
2.250862866640090942e-01
-3.374737873673439026e-02
-1.054257005453109741e-01
-4.214407503604888916e-02
-7.332911714911460876e-03
-1.671999692916870117e-01
-7.846319675445556641e-02
-2.624687924981117249e-02
-3.283400461077690125e-02
1.830134890042245388e-03
1.442380398511886597e-01
5.652793869376182556e-02
-5.014374852180480957e-02
-4.578727763146162033e-03
-2.366526611149311066e-02
-3.320324793457984924e-02
1.484350115060806274e-02
8.152079582214355469e-02
-3.871065974235534668e-01
2.405727505683898926e-01
-4.112157225608825684e-02
-9.357887506484985352e-02
2.414814233779907227e-01
1.171223223209381104e-01
-1.546063721179962158e-01
-1.018703430891036987e-01
-2.471499890089035034e-01
-3.504864573478698730e-01
-1.130311936140060425e-01
3.894226849079132080e-01
9.499479085206985474e-02
9.746877849102020264e-02
2.642986178398132324e-02
1.659191027283668518e-02
-1.502680182456970215e-01
9.891728311777114868e-02
-1.217376589775085449e-01
-4.210781306028366089e-03
-8.496782183647155762e-02
1.112234592437744141e-01
8.682093769311904907e-02
1.808208525180816650e-01
9.561912715435028076e-02
1.912558823823928833e-01
-1.052846759557723999e-01
1.257555335760116577e-01
2.064741104841232300e-01
-2.290987372398376465e-01
2.006976902484893799e-01
1.427655071020126343e-01
-7.025416195392608643e-02
1.484321653842926025e-01
-2.140677347779273987e-02
3.319167494773864746e-01
2.258421033620834351e-01
-8.885153383016586304e-02
-2.730449438095092773e-01
-5.627844482660293579e-02
1.638506501913070679e-01
1.039744094014167786e-01
-4.048440232872962952e-02
7.807586342096328735e-02
-4.351310804486274719e-02
-7.505893707275390625e-02
2.051464319229125977e-01
5.720974504947662354e-02
-3.566567301750183105e-01
2.731302678585052490e-01
7.896788418292999268e-02
-3.708561360836029053e-01
-1.782516390085220337e-01
-3.317521512508392334e-01
9.735231846570968628e-02
8.845031857490539551e-01
1.025078147649765015e-01
3.130803704261779785e-01
-4.946281015872955322e-02
-6.455910950899124146e-02
-3.632910251617431641e-01
-2.257714122533798218e-01
-6.851213425397872925e-02
9.792323410511016846e-02
-3.496697843074798584e-01
4.238381087779998779e-01
2.683729827404022217e-01
4.816075265407562256e-01
-1.895145475864410400e-01
1.774415932595729828e-02
-5.573588013648986816e-01
4.790476560592651367e-01
4.535922110080718994e-01
4.339056611061096191e-01
2.276636064052581787e-01
-4.110290408134460449e-01
-3.679804503917694092e-01
-2.671183645725250244e-01
6.906921267509460449e-01
-2.050910517573356628e-02
-6.775025278329849243e-02
6.925409436225891113e-01
1.335272639989852905e-01
1.297463774681091309e-01
-1.614256650209426880e-01
1.796397864818572998e-01
-9.021240472793579102e-02
-3.287588059902191162e-02
-9.455382078886032104e-02
-6.207863334566354752e-03
-4.493485689163208008e-01
1.790347993373870850e-01
9.447768330574035645e-02
-1.180198565125465393e-01
-2.838791012763977051e-01
-7.149831205606460571e-02
1.931660771369934082e-01
-1.244459450244903564e-01
4.972645267844200134e-02
1.732206158339977264e-02
1.903361976146697998e-01
1.261255890130996704e-01
-1.721225678920745850e-01
2.538790926337242126e-02
2.156065702438354492e-01
4.632062464952468872e-02
2.537043094635009766e-01
-1.356063634157180786e-01
1.087969467043876648e-01
-1.418533325195312500e-01
1.585447192192077637e-01
-1.975497975945472717e-02
1.917603239417076111e-02
2.327280491590499878e-01
3.080982565879821777e-01
1.941451579332351685e-01
1.839414387941360474e-01
3.424979746341705322e-01
2.959352731704711914e-02
3.574993014335632324e-01
-2.001530081033706665e-01
1.894770115613937378e-01
-1.976673156023025513e-01
1.747058331966400146e-01
2.830861806869506836e-01
-2.296910062432289124e-02
-6.527260877192020416e-03
-2.200170652940869331e-03
4.663074314594268799e-01
3.633115291595458984e-01
8.100546151399612427e-02
-4.051657766103744507e-02
-1.355153769254684448e-01
1.147716715931892395e-01
-5.011999607086181641e-01
6.006960943341255188e-02
3.463537096977233887e-01
3.861386775970458984e-01
-2.694632411003112793e-01
-6.374559998512268066e-01
-3.899062573909759521e-01
1.863532662391662598e-01
6.278332471847534180e-01
-6.099394336342811584e-02
2.723191678524017334e-02
3.007782101631164551e-01
1.860890835523605347e-01
2.983162105083465576e-01
-1.937788426876068115e-01
8.909542858600616455e-02
-3.404275327920913696e-02
4.269163608551025391e-01
-4.041488170623779297e-01
1.484570950269699097e-01
-2.767300605773925781e-01
-3.594481945037841797e-02
2.320540845394134521e-01
-3.722202181816101074e-01
7.987417280673980713e-02
-2.229643017053604126e-01
3.224984407424926758e-01
2.576219439506530762e-01
-1.275604665279388428e-01
6.059336662292480469e-01
4.413114786148071289e-01
-1.141297519207000732e-01
1.840801686048507690e-01
6.116203591227531433e-02
1.355339139699935913e-01
2.109699137508869171e-02
-6.092203781008720398e-02
-4.538271110504865646e-03
3.557723760604858398e-02
1.649969518184661865e-01
2.776519358158111572e-01
1.780312135815620422e-02
-9.119695983827114105e-03
1.757572442293167114e-01
1.393123418092727661e-01
-1.223148256540298462e-01
3.082559816539287567e-02
5.665367096662521362e-02
-5.966427922248840332e-02
1.244786903262138367e-01
2.862678468227386475e-01
-1.658402830362319946e-01
3.337685167789459229e-01
3.848247602581977844e-02
4.652724787592887878e-02
2.924181986600160599e-03
1.370042860507965088e-01
9.895491600036621094e-02
3.387476503849029541e-01
2.695353031158447266e-01
4.799028486013412476e-02
1.810051351785659790e-01
2.267587482929229736e-01
-2.551212906837463379e-02
8.364901691675186157e-02
6.336122006177902222e-02
2.612648904323577881e-01
2.982121407985687256e-01
4.234332963824272156e-02
-5.518694594502449036e-02
1.397095769643783569e-01
1.559979617595672607e-01
4.167374372482299805e-01
-3.701999783515930176e-03
1.966677457094192505e-01
2.570952177047729492e-01
1.237892955541610718e-01
2.321407496929168701e-01
-1.386104971170425415e-01
1.016870439052581787e-01
-2.002205699682235718e-01
3.535412847995758057e-01
-3.962118178606033325e-02
-4.996373876929283142e-02
-4.010074436664581299e-01
1.125817373394966125e-01
3.278861045837402344e-01
1.233283579349517822e-01
3.696516156196594238e-01
2.568072676658630371e-01
3.278665542602539062e-01
1.417732536792755127e-01
-3.094700872898101807e-01
1.170658022165298462e-01
1.317523270845413208e-01
3.355239704251289368e-02
-4.939613640308380127e-01
-3.602312505245208740e-01
4.362362027168273926e-01
2.983254492282867432e-01
1.066969931125640869e-01
-1.788365542888641357e-01
2.594034969806671143e-01
4.335730969905853271e-01
6.097837686538696289e-01
-4.839698225259780884e-02
4.025040939450263977e-02
1.152356714010238647e-01
3.640668690204620361e-01
-7.291010767221450806e-02
1.988137811422348022e-01
1.725123077630996704e-02
-1.827071458101272583e-01
7.092299312353134155e-02
1.179740875959396362e-01
-3.000395298004150391e-01
3.700555860996246338e-01
3.584154248237609863e-01
2.192651927471160889e-01
3.870488405227661133e-01
1.990573853254318237e-01
2.970920875668525696e-02
-1.087334845215082169e-02
1.126647964119911194e-01
-2.118462324142456055e-01
4.431156441569328308e-02
2.478339970111846924e-01
6.685436517000198364e-02
-2.250629477202892303e-02
-3.574653267860412598e-01
1.988134384155273438e-01
-8.696861565113067627e-02
1.781663894653320312e-01
4.420447945594787598e-01
5.199593901634216309e-01
1.543481796979904175e-01
1.996764540672302246e-01
-1.767018809914588928e-02
3.516687080264091492e-02
4.027842730283737183e-02
2.152303978800773621e-02
-2.025621756911277771e-02
-3.157274797558784485e-02
5.857182294130325317e-02
-1.145916134119033813e-01
-1.242367029190063477e-01
1.830886751413345337e-01
-6.547709554433822632e-02
6.973430514335632324e-02
1.209523528814315796e-01
3.316769301891326904e-01
1.792603731155395508e-01
4.382523894309997559e-02
2.759158313274383545e-01
2.751004695892333984e-01
-6.596382707357406616e-02
-1.141040027141571045e-01
-4.373268038034439087e-02
2.062893360853195190e-01
-6.306415796279907227e-02
1.226437613368034363e-01
-2.293152958154678345e-01
2.200000546872615814e-02
5.587561056017875671e-02
3.783378303050994873e-01
3.073068559169769287e-01
2.193728685379028320e-01
1.618810594081878662e-01
-4.308471456170082092e-02
4.353247582912445068e-02
4.637295752763748169e-02
2.215670980513095856e-02
1.585242152214050293e-01
4.484396576881408691e-01
-8.911354094743728638e-02
-4.995291680097579956e-02
2.682501077651977539e-01
2.341948002576828003e-01
-3.796779550611972809e-03
1.252928823232650757e-01
1.132986694574356079e-01
2.570003569126129150e-01
1.911308318376541138e-01
-5.591174121946096420e-03
3.115392923355102539e-01
3.046023845672607422e-01
3.084502555429935455e-02
1.586048603057861328e-01
2.152368724346160889e-01
8.418307453393936157e-02
-6.114701554179191589e-02
9.839515388011932373e-02
1.392845958471298218e-01
2.115692049264907837e-01
2.600010037422180176e-01
1.837614923715591431e-02
6.035092752426862717e-03
1.387472301721572876e-01
-1.955313831567764282e-01
1.046527326107025146e-01
1.022241190075874329e-01
3.889304772019386292e-02
2.988026440143585205e-01
-5.725212022662162781e-02
1.572499126195907593e-01
1.405298411846160889e-01
-9.849157929420471191e-02
2.904863953590393066e-01
2.657705843448638916e-01
5.061697363853454590e-01
-1.111910399049520493e-02
9.368059784173965454e-02
3.813661262392997742e-02
4.347213208675384521e-01
-1.944960951805114746e-01
-1.676229834556579590e-01
1.546352207660675049e-01
1.955835819244384766e-01
2.010823488235473633e-01
4.751440882682800293e-01
6.216286420822143555e-01
-2.755657397210597992e-02
-1.766565442085266113e-02
5.666116997599601746e-02
-2.402866035699844360e-01
2.195926010608673096e-01
2.251903414726257324e-01
5.085113644599914551e-01
9.554667025804519653e-02
-2.628415226936340332e-01
4.374166578054428101e-02
3.896293044090270996e-02
5.926606655120849609e-01
2.086609601974487305e-02
1.794231869280338287e-02
3.500513732433319092e-01
2.483296394348144531e-01
-1.451935172080993652e-01
-8.971756696701049805e-02
3.666099309921264648e-01
-1.232128813862800598e-01
3.044265508651733398e-01
-3.584124892950057983e-02
3.680443465709686279e-01
4.966256394982337952e-02
-1.211113855242729187e-02
5.743821710348129272e-02
-7.237890362739562988e-02
4.230531156063079834e-01
6.432095766067504883e-01
1.899117231369018555e-01
5.098751783370971680e-01
4.384638741612434387e-02
1.230578273534774780e-01
4.996067285537719727e-01
1.279457509517669678e-01
-3.807834982872009277e-01
-5.455563962459564209e-02
4.939486682415008545e-01
5.525461211800575256e-02
-2.084885835647583008e-01
-2.212279140949249268e-01
1.882309615612030029e-01
1.686148345470428467e-01
3.830673992633819580e-01
-3.656356036663055420e-02
5.634967088699340820e-01
4.760228097438812256e-01
4.211375415325164795e-01
3.121681138873100281e-02
1.157793104648590088e-01
1.942221969366073608e-01
1.186904031783342361e-03
8.735685795545578003e-02
9.719604253768920898e-02
-6.427510827779769897e-02
-1.096795350313186646e-01
1.244852840900421143e-01
1.657100468873977661e-01
9.846124053001403809e-02
1.676036119461059570e-01
4.304561018943786621e-01
2.047439217567443848e-01
1.791127175092697144e-01
-3.812341988086700439e-01
2.625139355659484863e-01
2.876758277416229248e-01
2.517362311482429504e-02
-4.236660897731781006e-01
-2.609487473964691162e-01
3.196292221546173096e-01
-3.984247520565986633e-02
2.202911302447319031e-02
2.124003507196903229e-02
1.836198866367340088e-01
2.399515807628631592e-01
4.187037348747253418e-01
-5.578365176916122437e-03
3.368868529796600342e-01
2.885244190692901611e-01
2.890584766864776611e-01
3.254522085189819336e-01
-2.244037836790084839e-01
-7.471304386854171753e-02
-4.734867438673973083e-02
2.514935657382011414e-02
-9.893211722373962402e-02
1.970409601926803589e-01
-2.424681931734085083e-01
2.951932251453399658e-01
3.070789575576782227e-02
-8.135852962732315063e-02
-8.891701698303222656e-02
3.120845854282379150e-01
3.812278807163238525e-01
1.720728129148483276e-01
1.735454350709915161e-01
-2.842565476894378662e-01
4.242678582668304443e-01
1.048286929726600647e-01
-2.459874004125595093e-01
-1.354659944772720337e-01
1.278604865074157715e-01
-8.033102005720138550e-02
3.599192500114440918e-01
-1.402526628226041794e-02
4.200169742107391357e-01
2.012831419706344604e-01
4.615114256739616394e-02
1.279231533408164978e-02
7.934912294149398804e-02
2.434689253568649292e-01
7.596459984779357910e-02
1.890786290168762207e-01
8.582200855016708374e-02
5.637998878955841064e-02
-2.731257816776633263e-03
3.176735341548919678e-02
-2.673986554145812988e-01
-1.193470284342765808e-01
-1.957607418298721313e-01
2.302372753620147705e-01
6.094698607921600342e-02
1.072067841887474060e-01
-2.480056583881378174e-01
1.846769154071807861e-01
1.640388667583465576e-01
-5.502421408891677856e-02
-1.153117492794990540e-01
-1.864624619483947754e-01
-8.212459832429885864e-02
-3.274654597043991089e-02
-2.448523789644241333e-01
-3.903610259294509888e-02
2.898698747158050537e-01
4.214154779911041260e-01
1.354720592498779297e-01
-2.070924043655395508e-01
-2.547352313995361328e-01
6.555254757404327393e-02
-1.691097207367420197e-02
-4.891771078109741211e-02
-6.494067609310150146e-02
3.946079909801483154e-01
7.075654342770576477e-03
4.819878041744232178e-01
-4.038035273551940918e-01
-5.525903776288032532e-02
-6.239778548479080200e-02
7.937173247337341309e-01
1.226150915026664734e-01
1.732385307550430298e-01
-5.472468733787536621e-01
8.285741508007049561e-02
1.740171611309051514e-01
-3.839748799800872803e-01
1.594662368297576904e-01
1.929043084383010864e-01
-7.699420303106307983e-02
3.613405525684356689e-01
1.923280954360961914e-01
3.242885172367095947e-01
1.273466497659683228e-01
5.866322666406631470e-02
-6.679459214210510254e-01
3.329183161258697510e-01
7.740543484687805176e-01
3.221205472946166992e-01
3.241600096225738525e-01
-5.936735868453979492e-01
-3.591114878654479980e-01
2.610754780471324921e-02
1.223819017410278320e+00
4.635076969861984253e-03
-1.646161824464797974e-02
1.078387022018432617e+00
-9.843630343675613403e-02
-8.093395829200744629e-02
2.117431610822677612e-01
5.706456303596496582e-02
2.603422105312347412e-01
1.051309611648321152e-02
1.798605471849441528e-01
-3.962874412536621094e-02
2.915692627429962158e-01
-3.296027658507227898e-03
-1.603110344149172306e-03
3.928070962429046631e-01
-1.241589337587356567e-01
-8.181222528219223022e-02
2.148284167051315308e-01
7.626937329769134521e-02
4.152052700519561768e-01
-1.221792697906494141e-01
-1.863798201084136963e-01
-1.626284420490264893e-02
7.007300853729248047e-02
2.421401739120483398e-01
9.586171060800552368e-02
-1.198251172900199890e-01
1.782825738191604614e-01
7.392032537609338760e-03
-1.123626604676246643e-01
-8.030470460653305054e-02
6.525335460901260376e-02
1.349772885441780090e-02
-3.376725018024444580e-01
-2.946516573429107666e-01
3.298608064651489258e-01
9.850407391786575317e-02
-9.702788293361663818e-02
-1.578829884529113770e-01
4.821281472686678171e-04
9.354190826416015625e-01
2.079393863677978516e-01
4.865546524524688721e-01
-7.804634422063827515e-02
2.403610348701477051e-01
1.052115559577941895e-01
-2.040383517742156982e-01
2.513961791992187500e-01
1.486021131277084351e-01
9.914241731166839600e-02
6.367722153663635254e-01
1.594164595007896423e-02
3.727356791496276855e-01
-4.060360789299011230e-02
1.934307068586349487e-02
-2.315956354141235352e-01
6.519228965044021606e-02
4.275765419006347656e-01
3.567159175872802734e-01
1.721267215907573700e-02
-4.915907084941864014e-01
-1.417731791734695435e-01
2.667356431484222412e-01
8.094605803489685059e-01
-3.109224140644073486e-02
5.521015450358390808e-02
4.604177474975585938e-01
4.509599506855010986e-01
-6.193103268742561340e-02
5.973554402589797974e-02
4.555669426918029785e-01
3.759586811065673828e-02
4.649085402488708496e-01
1.524193771183490753e-02
5.079227089881896973e-01
-2.544386386871337891e-01
1.749034970998764038e-01
1.281549185514450073e-01
8.882707357406616211e-02
2.682595849037170410e-01
2.774098515510559082e-01
8.830316364765167236e-02
5.506473183631896973e-01
-1.943908631801605225e-02
-5.977226048707962036e-02
-1.483992785215377808e-01
-3.352447226643562317e-02
1.774423420429229736e-01
2.330822497606277466e-01
2.343068867921829224e-01
2.487999945878982544e-02
9.495283663272857666e-02
1.786689972504973412e-03
5.878158286213874817e-02
1.453903913497924805e-01
5.066874027252197266e-01
-5.545210838317871094e-02
-1.828300356864929199e-01
3.361386656761169434e-01
1.555159222334623337e-02
-6.309645622968673706e-02
1.469534039497375488e-01
2.100282013416290283e-01
7.638543099164962769e-02
2.070834934711456299e-01
6.473973393440246582e-02
7.818733900785446167e-02
3.419677019119262695e-01
-3.054577484726905823e-02
1.086752042174339294e-01
1.218166723847389221e-01
3.307834565639495850e-01
-1.247727498412132263e-01
-8.461713790893554688e-02
2.523414194583892822e-01
-8.300478756427764893e-02
8.018916100263595581e-02
-9.121451526880264282e-03
2.681665867567062378e-02
-1.944755762815475464e-01
-3.599328547716140747e-02
2.041444480419158936e-01
3.694727271795272827e-02
9.962911158800125122e-02
-1.540902256965637207e-01
9.249943494796752930e-02
-1.886695325374603271e-01
2.582847326993942261e-02
-1.966291852295398712e-02
1.322584748268127441e-01
-7.645978778600692749e-02
5.735821276903152466e-02
1.054178401827812195e-01
-3.323650360107421875e-01
1.577328741550445557e-01
1.656987965106964111e-01
9.805676341056823730e-02
-2.449943423271179199e-01
9.336572885513305664e-02
-3.369045555591583252e-01
-8.118192851543426514e-02
1.709533929824829102e-01
-1.560857892036437988e-01
-7.383492588996887207e-02
-4.489128291606903076e-02
1.970075629651546478e-02
7.315407693386077881e-02
-1.070594340562820435e-01
1.832091063261032104e-01
1.502969413995742798e-01
1.483415998518466949e-02
-1.475001126527786255e-01
-3.213149905204772949e-01
1.031896919012069702e-01
-8.160242810845375061e-03
1.659351214766502380e-02
1.244992241263389587e-01
-1.478312313556671143e-01
3.807612508535385132e-02
8.066653460264205933e-02
1.366859301924705505e-02
-2.865491509437561035e-01
-1.162848174571990967e-01
2.156475931406021118e-02
-2.172257155179977417e-01
3.859987556934356689e-01
2.215819358825683594e-01
3.300152420997619629e-01
1.868168264627456665e-01
1.033636331558227539e-01
1.802622526884078979e-01
-1.611453443765640259e-01
-1.565406471490859985e-01
-2.873986065387725830e-01
-2.295035719871520996e-01
-1.776646673679351807e-01
-1.690465770661830902e-02
1.696614623069763184e-01
-7.855290547013282776e-03
1.006759032607078552e-01
1.798813641071319580e-01
-7.840929925441741943e-02
-1.081873178482055664e-01
-1.275349557399749756e-01
-1.766720712184906006e-01
8.170103281736373901e-02
-7.291046530008316040e-02
2.181901335716247559e-01
1.799676567316055298e-02
-7.330583874136209488e-03
1.680656336247920990e-02
3.001865372061729431e-02
-4.439026117324829102e-03
-2.696976661682128906e-01
6.921909749507904053e-02
2.332545369863510132e-01
2.415153086185455322e-01
8.646308444440364838e-03
1.978899091482162476e-01
-1.643808484077453613e-01
3.929564356803894043e-01
-1.955502480268478394e-01
1.984571814537048340e-01
-2.212051302194595337e-01
1.977084577083587646e-01
2.162382453680038452e-01
1.434533149003982544e-01
4.825318604707717896e-02
3.620235025882720947e-01
2.920338511466979980e-01
2.420473396778106689e-01
-3.110657632350921631e-01
-1.262802034616470337e-01
4.379000365734100342e-01
5.509172379970550537e-02
-5.005850791931152344e-01
-3.958645761013031006e-01
3.832274973392486572e-01
6.267235428094863892e-02
-2.794548273086547852e-01
-3.861244916915893555e-01
2.849514782428741455e-01
3.268031775951385498e-01
5.928588509559631348e-01
-6.139784678816795349e-02
1.125156208872795105e-01
2.662878334522247314e-01
-4.067466594278812408e-03
1.590849906206130981e-01
2.290979027748107910e-01
-9.737004339694976807e-02
1.978931874036788940e-01
-2.348446100950241089e-02
-5.259664729237556458e-02
1.931184977293014526e-01
-2.559598684310913086e-01
-4.308005049824714661e-02
1.821227371692657471e-02
1.433310061693191528e-01
3.345581144094467163e-02
-9.083648771047592163e-02
-1.052459403872489929e-01
1.687500923871994019e-01
-3.556584194302558899e-02
9.488243609666824341e-02
3.445751368999481201e-01
-6.668356060981750488e-02
-1.146030128002166748e-01
-1.517178267240524292e-01
9.677255153656005859e-02
-1.186225563287734985e-01
1.283661276102066040e-01
4.892557114362716675e-02
3.320888876914978027e-01
-4.799569770693778992e-02
-7.727147545665502548e-03
-2.047073654830455780e-02
2.107425034046173096e-01
1.710365712642669678e-01
-1.074174121022224426e-01
-6.641818583011627197e-02
4.364904761314392090e-02
-3.447194099426269531e-01
1.833897531032562256e-01
8.647724390029907227e-01
-3.602797687053680420e-01
2.576580047607421875e-01
6.522956490516662598e-02
-2.272917926311492920e-01
-2.015469372272491455e-01
-5.661523714661598206e-02
1.632971912622451782e-01
-2.337679862976074219e-01
-1.721714735031127930e-01
8.766320347785949707e-01
2.297074943780899048e-01
5.376049280166625977e-01
6.568205356597900391e-02
2.687992341816425323e-02
-2.324495017528533936e-01
6.405262351036071777e-01
6.253570914268493652e-01
3.586256206035614014e-01
1.446151882410049438e-01
-5.983120799064636230e-01
-1.279883235692977905e-01
-1.377936899662017822e-01
5.394451022148132324e-01
5.190210416913032532e-02
-3.661439940333366394e-02
6.659349799156188965e-01
1.397420838475227356e-02
-1.223306059837341309e-01
-3.611519336700439453e-01
-4.474672023206949234e-03
-4.468565806746482849e-02
5.140492320060729980e-01
-1.918116956949234009e-01
3.397575318813323975e-01
-2.936035990715026855e-01
4.257646203041076660e-02
-1.710308641195297241e-01
-3.051581382751464844e-01
-1.728239655494689941e-01
3.212653994560241699e-01
1.846387684345245361e-01
3.098193109035491943e-01
-1.835580170154571533e-01
1.262620836496353149e-01
2.096038684248924255e-02
1.369885504245758057e-01
-2.093827724456787109e-01
1.310156583786010742e-01
4.875685572624206543e-01
2.716172635555267334e-01
1.409508138895034790e-01
-5.086531639099121094e-01
-1.556380987167358398e-01
-1.781142083927989006e-03
4.244657754898071289e-01
-3.046801313757896423e-02
-5.089379101991653442e-02
2.781472802162170410e-01
6.690210103988647461e-02
2.465695142745971680e-01
-1.810942590236663818e-02
4.858250170946121216e-02
1.001048386096954346e-01
2.073960006237030029e-01
-4.783402010798454285e-02
1.107045263051986694e-01
-1.280024051666259766e-01
-1.323533952236175537e-01
-1.754147261381149292e-01
1.684400290250778198e-01
1.638580113649368286e-02
-1.672976315021514893e-01
-5.204126238822937012e-02
6.621284037828445435e-02
5.492743570357561111e-03
1.985307484865188599e-01
-1.956172734498977661e-01
-1.160262450575828552e-01
9.014059603214263916e-02
2.274421602487564087e-01
-1.892411708831787109e-02
5.609798431396484375e-02
9.174699336290359497e-02
1.189823169261217117e-02
-1.038595885038375854e-01
-1.066043302416801453e-01
1.956598907709121704e-01
-5.861802771687507629e-02
3.130742162466049194e-02
2.164885997772216797e-01
-7.567209005355834961e-02
2.983419597148895264e-01
1.458435505628585815e-01
3.073292374610900879e-01
6.604910641908645630e-02
1.290320158004760742e-01
-1.626181602478027344e-01
1.428153663873672485e-01
-1.184101775288581848e-01
1.420650035142898560e-01
3.593050241470336914e-01
-3.340236097574234009e-02
1.337799131870269775e-01
3.071987032890319824e-01
1.792572438716888428e-01
1.460311263799667358e-01
-1.369572281837463379e-01
-1.959014981985092163e-01
2.883029282093048096e-01
-4.312894493341445923e-02
-2.488539814949035645e-01
-2.294304370880126953e-01
4.232541024684906006e-01
-6.142586469650268555e-02
1.864529587328433990e-02
-1.683141887187957764e-01
6.676395982503890991e-02
2.314178049564361572e-01
1.940031349658966064e-01
-2.798601426184177399e-02
1.925532668828964233e-01
3.842820525169372559e-01
7.430969178676605225e-02
8.562976866960525513e-02
-1.079801395535469055e-01
-1.653830520808696747e-02
7.558650523424148560e-02
2.564366161823272705e-01
1.003018170595169067e-01
1.230749785900115967e-01
-3.627587482333183289e-02
-1.186382994055747986e-01
-1.017073616385459900e-01
-5.761136487126350403e-02
1.255002468824386597e-01
-1.224152967333793640e-01
4.194498807191848755e-02
1.335325241088867188e-01
3.838646411895751953e-02
2.494993247091770172e-02
3.566312491893768311e-01
1.174137815833091736e-01
-3.169258236885070801e-01
-3.052315674722194672e-02
1.516708880662918091e-01
-8.774112910032272339e-02
1.393707990646362305e-01
-1.238519251346588135e-01
2.130141556262969971e-01
-2.013412714004516602e-01
5.099361389875411987e-02
4.482145234942436218e-02
-4.875873564742505550e-04
1.103950589895248413e-01
6.680256128311157227e-01
3.370496630668640137e-01
2.043765038251876831e-01
1.632080525159835815e-01
3.915861845016479492e-01
2.772763967514038086e-01
9.951534122228622437e-02
4.251833558082580566e-01
1.126561611890792847e-01
3.162254691123962402e-01
2.026192145422101021e-03
-2.610718607902526855e-01
3.162871599197387695e-01
2.393741756677627563e-01
2.315378189086914062e-01
1.405732780694961548e-01
2.836591005325317383e-01
-4.492597188800573349e-03
-1.209200471639633179e-01
9.231315553188323975e-02
-1.558406800031661987e-01
1.359168291091918945e-01
3.978664875030517578e-01
2.285098135471343994e-01
2.351580113172531128e-01
-1.198380142450332642e-01
5.087167769670486450e-02
3.366269767284393311e-01
4.677851796150207520e-01
7.732674712315201759e-04
1.655551195144653320e-01
4.582615196704864502e-01
-9.525630623102188110e-02
1.658326238393783569e-01
1.323093175888061523e-01
1.979249864816665649e-01
2.284832596778869629e-01
3.599584698677062988e-01
7.963797450065612793e-02
-2.854469120502471924e-01
4.317755252122879028e-02
6.131208315491676331e-02
-6.092758104205131531e-02
3.056910932064056396e-01
4.336552321910858154e-02
9.302242659032344818e-03
1.347109377384185791e-01
4.047492984682321548e-04
-1.408651918172836304e-01
-4.947375878691673279e-02
1.685587130486965179e-02
-3.535708412528038025e-03
2.790040969848632812e-01
-1.528804749250411987e-01
-3.159038424491882324e-01
1.580719351768493652e-01
2.448476850986480713e-01
-8.175762742757797241e-02
2.880559563636779785e-01
-3.112254738807678223e-01
3.425986170768737793e-01
3.101904317736625671e-02
1.310371011495590210e-01
-2.239919453859329224e-01
-2.160120755434036255e-01
-1.945273727178573608e-01
-9.896120429039001465e-02
2.245388031005859375e-01
-2.126597315073013306e-01
1.143444702029228210e-01
2.236420363187789917e-01
4.107120633125305176e-02
-5.053871124982833862e-02
7.116530835628509521e-02
1.837710142135620117e-01
-2.108728140592575073e-01
-1.653265058994293213e-01
-2.751360833644866943e-02
2.398407012224197388e-01
-6.485798209905624390e-02
-3.033869862556457520e-01
1.265206336975097656e-01
2.308621257543563843e-01
6.320390850305557251e-02
2.639172673225402832e-01
-3.336533904075622559e-01
2.220097556710243225e-02
-8.444519713521003723e-03
-4.725699499249458313e-02
3.915696144104003906e-01
1.416224390268325806e-01
1.847923249006271362e-01
5.785176157951354980e-02
-5.348122119903564453e-02
6.431835889816284180e-02
2.469830363988876343e-01
1.399296969175338745e-01
1.446622759103775024e-01
1.420395523309707642e-01
-6.344611942768096924e-02
-7.047456502914428711e-02
7.355035841464996338e-02
-8.616926521062850952e-02
7.798136025667190552e-02
1.048014312982559204e-01
1.813825666904449463e-01
-9.472458064556121826e-02
-6.402938067913055420e-02
-6.595880724489688873e-03
1.022528707981109619e-01
5.299937129020690918e-01
-2.009631544351577759e-01
-2.476037442684173584e-01
1.729296743869781494e-01
-1.255566030740737915e-01
-4.173996299505233765e-02
1.934049278497695923e-02
-5.592580884695053101e-02
4.531514644622802734e-02
3.805631995201110840e-01
-1.066961735486984253e-01
-2.252618074417114258e-01
-9.925322979688644409e-02
-2.289764285087585449e-01
1.636545807123184204e-01
-3.171501681208610535e-02
-2.611288428306579590e-01
-6.595152616500854492e-02
3.759493231773376465e-01
-9.152957201004028320e-01
4.328960776329040527e-01
3.564350605010986328e-01
3.597769141197204590e-01
1.407111287117004395e-01
1.770570576190948486e-01
2.386851459741592407e-01
-5.463547110557556152e-01
1.045921370387077332e-01
-5.316600799560546875e-01
-6.941764801740646362e-02
3.650593459606170654e-01
3.734434545040130615e-01
-5.600182414054870605e-01
1.064768508076667786e-01
-2.211446613073348999e-01
2.026280015707015991e-01
-7.774374485015869141e-01
-1.053843945264816284e-01
-5.148503780364990234e-01
8.506269007921218872e-02
1.183966025710105896e-01
2.511520385742187500e-01
-1.051691640168428421e-02
-8.157793283462524414e-01
-6.266480684280395508e-01
-5.245628356933593750e-01
5.696502327919006348e-01
-5.838956683874130249e-03
-3.115555644035339355e-01
4.542694985866546631e-02
2.732947170734405518e-01
8.079799264669418335e-02
-7.450041174888610840e-02
2.321444004774093628e-01
-5.572975426912307739e-02
-2.823238968849182129e-01
7.500872015953063965e-02
-5.354532226920127869e-02
3.735581040382385254e-02
6.976329535245895386e-02
3.061574101448059082e-01
-1.309773419052362442e-02
5.918906629085540771e-02
1.968617886304855347e-01
9.291471540927886963e-02
-1.108574345707893372e-01
-2.553114295005798340e-01
-1.955878436565399170e-01
2.339223772287368774e-01
1.023988723754882812e-01
1.600348502397537231e-01
-4.919480681419372559e-01
3.262909501791000366e-02
6.373401731252670288e-02
-1.151112094521522522e-01
1.924884468317031860e-01
1.979662030935287476e-01
9.363897144794464111e-03
3.638293221592903137e-02
5.900922045111656189e-02
1.507628113031387329e-01
5.034637823700904846e-02
-5.999000743031501770e-02
5.632668733596801758e-01
4.704792201519012451e-01
2.281678617000579834e-01
1.456403136253356934e-01
1.260214149951934814e-01
-4.044171571731567383e-01
2.337218225002288818e-01
-3.588806390762329102e-01
-1.875216513872146606e-02
1.665826439857482910e-01
2.924782037734985352e-01
9.095516055822372437e-02
-6.388455629348754883e-02
2.384450882673263550e-01
9.174977988004684448e-02
-4.785907454788684845e-03
2.490104883909225464e-01
-1.154380589723587036e-01
6.650862097740173340e-02
-5.577867031097412109e-01
2.932693362236022949e-01
2.945100069046020508e-01
1.011743694543838501e-01
-1.379251033067703247e-01
-5.654924511909484863e-01
-1.552695631980895996e-01
-1.893919706344604492e-01
4.527872800827026367e-01
-4.887352511286735535e-02
-7.038009166717529297e-02
2.076820880174636841e-01
1.241671442985534668e-01
2.413625717163085938e-01
1.539302319288253784e-01
6.571009755134582520e-02
9.801136702299118042e-02
2.237576395273208618e-01
-4.712216854095458984e-01
-1.245226338505744934e-01
-3.975800797343254089e-02
-4.830675944685935974e-02
-3.547374904155731201e-01
1.816265881061553955e-01
-4.173460975289344788e-02
-1.226777769625186920e-02
3.362617790699005127e-01
-8.982767164707183838e-02
1.649087816476821899e-01
1.057245433330535889e-01
-1.211768761277198792e-01
6.567129492759704590e-02
-2.691718637943267822e-01
2.700611054897308350e-01
3.394649624824523926e-01
-1.923781260848045349e-02
2.376770675182342529e-01
-2.103848159313201904e-01
-1.236119568347930908e-01
-2.129466533660888672e-01
3.527264595031738281e-01
-4.761104285717010498e-02
-3.424376249313354492e-01
3.506674468517303467e-01
1.154408901929855347e-01
-1.774813607335090637e-02
1.220226734876632690e-01
2.605578899383544922e-01
5.332474410533905029e-02
2.225407361984252930e-01
4.438009858131408691e-01
3.391652405261993408e-01
1.504039578139781952e-02
4.233986735343933105e-01
-2.099284902215003967e-03
1.064961850643157959e-01
2.627126276493072510e-01
3.831655681133270264e-01
1.737744361162185669e-01
3.034063279628753662e-01
1.502990126609802246e-01
2.647969722747802734e-01
-1.856580674648284912e-01
5.463257431983947754e-02
-9.071223437786102295e-02
2.186584025621414185e-01
1.511888206005096436e-01
1.428300589323043823e-01
1.420305520296096802e-01
-2.080049812793731689e-01
-1.292152702808380127e-01
-2.406649990007281303e-03
5.160501003265380859e-01
-6.173559650778770447e-02
7.399266213178634644e-02
9.322096593677997589e-03
3.031550943851470947e-01
1.965460330247879028e-01
4.771394655108451843e-02
1.685648709535598755e-01
1.727379858493804932e-01
-7.822553627192974091e-03
-8.435165137052536011e-02
-3.926237300038337708e-02
3.922310844063758850e-02
8.487900346517562866e-02
-6.814003735780715942e-02
-2.588020265102386475e-02
1.161506175994873047e-01
-9.471427649259567261e-02
1.537403017282485962e-01
-1.463762521743774414e-01
-3.199685513973236084e-01
3.099713847041130066e-02
-1.600647568702697754e-01
1.596924476325511932e-02
-2.529073953628540039e-01
-1.480525135993957520e-01
-2.426181547343730927e-02
-1.000176817178726196e-01
-9.367367625236511230e-02
4.395164921879768372e-02
-7.586164772510528564e-02
1.075402051210403442e-01
1.400213390588760376e-01
-2.493907883763313293e-02
1.682590693235397339e-01
1.496048867702484131e-01
2.598521411418914795e-01
-1.073851585388183594e-01
-3.751657009124755859e-01
-3.389672338962554932e-01
1.984101086854934692e-01
2.512501776218414307e-01
1.845872104167938232e-01
-1.903126835823059082e-01
2.103447765111923218e-01
2.572155594825744629e-01
3.118398487567901611e-01
-9.410860389471054077e-02
-1.634997576475143433e-01
2.903118729591369629e-02
1.733962148427963257e-01
-1.159792020916938782e-01
-6.578779965639114380e-02
-1.455236971378326416e-01
4.698377251625061035e-01
-8.821468055248260498e-02
1.098724603652954102e-01
-2.962358891963958740e-01
8.859112858772277832e-02
4.516799747943878174e-02
1.648746281862258911e-01
5.496765971183776855e-01
2.854450941085815430e-01
2.016099840402603149e-01
1.431417837738990784e-02
-3.799226507544517517e-02
6.008483842015266418e-02
1.418551523238420486e-02
8.904083818197250366e-02
-9.863895177841186523e-02
-1.712241023778915405e-01
-8.848524093627929688e-02
-9.579951316118240356e-02
3.537236452102661133e-01
2.817160189151763916e-01
-7.365310192108154297e-02
3.629408478736877441e-01
3.320794403553009033e-01
-2.775343507528305054e-02
1.494932174682617188e-01
-1.497372537851333618e-01
-9.376593865454196930e-03
1.241358369588851929e-01
-4.053946584463119507e-03
3.402702808380126953e-01
-6.732700765132904053e-02
3.353339433670043945e-01
6.403319537639617920e-02
-9.430138021707534790e-02
-1.098905410617589951e-02
7.547620683908462524e-02
6.519574671983718872e-02
2.958135902881622314e-01
-5.894365534186363220e-02
4.180885553359985352e-01
1.423218697309494019e-01
3.637444674968719482e-01
-3.382956981658935547e-02
5.200825631618499756e-02
1.562002152204513550e-01
9.997669607400894165e-02
2.029367685317993164e-01
4.143753554672002792e-03
1.695048362016677856e-01
2.883276045322418213e-01
1.754376590251922607e-01
1.549956947565078735e-01
2.282628268003463745e-01
-2.775598168373107910e-01
3.976143524050712585e-02
2.340826988220214844e-01
2.741583585739135742e-01
2.908342778682708740e-01
2.438541688024997711e-02
-3.767906129360198975e-02
5.843747407197952271e-02
-1.575648486614227295e-01
-1.315302550792694092e-01
-1.190705448389053345e-01
-5.729227513074874878e-02
9.782379865646362305e-02
-2.076788246631622314e-01
-6.867489963769912720e-02
5.093273147940635681e-02
1.486552804708480835e-01
1.807400882244110107e-01
-5.082649737596511841e-02
-3.629335463047027588e-01
1.820205748081207275e-01
-1.518971472978591919e-02
-8.910517208278179169e-03
-1.939550340175628662e-01
1.532942354679107666e-01
-1.604315489530563354e-01
7.836634665727615356e-02
1.911210268735885620e-01
1.972397975623607635e-02
1.389323472976684570e-01
-1.530031859874725342e-01
1.812070757150650024e-01
1.681841909885406494e-01
1.042991876602172852e-01
-1.460913866758346558e-01
2.366337776184082031e-01
2.278489768505096436e-01
1.987660974264144897e-01
5.596686154603958130e-03
1.157242804765701294e-01
-1.460829526185989380e-01
2.394734025001525879e-01
-1.436416655778884888e-01
-3.897702321410179138e-02
-1.520280241966247559e-01
-1.612697988748550415e-01
2.337826043367385864e-01
1.175518780946731567e-01
1.748477965593338013e-01
-6.108997389674186707e-02
-7.326045632362365723e-02
-8.683843910694122314e-02
1.472601443529129028e-01
7.947041653096675873e-03
-1.273185163736343384e-01
-9.449055418372154236e-03
3.420532643795013428e-01
1.633254140615463257e-01
-2.461609989404678345e-01
2.651014328002929688e-01
1.799154132604598999e-01
3.572496473789215088e-01
2.340955659747123718e-02
3.110822439193725586e-01
-9.755690395832061768e-02
8.728519827127456665e-02
-2.459714002907276154e-02
5.071058869361877441e-03
3.878217041492462158e-01
3.792724385857582092e-02
-7.714103907346725464e-02
3.439571559429168701e-01
1.681528538465499878e-01
3.607773408293724060e-02
2.254442125558853149e-01
1.144763678312301636e-01
-2.247524634003639221e-02
-1.242110133171081543e-02
-1.525010913610458374e-01
-1.351750344038009644e-01
8.122678846120834351e-03
1.114301010966300964e-01
2.330959588289260864e-01
2.966370806097984314e-02
5.461892858147621155e-02
-4.450973868370056152e-02
2.927522361278533936e-01
-2.974552288651466370e-02
6.388590484857559204e-02
5.431580543518066406e-01
-3.515621125698089600e-01
2.575036287307739258e-01
-7.436911016702651978e-02
2.864127280190587044e-03
-1.328583210706710815e-01
-7.240695878863334656e-03
-4.521332681179046631e-01
3.563500046730041504e-01
4.625920355319976807e-01
-6.444868445396423340e-02
-1.343559920787811279e-01
2.096284031867980957e-01
3.437170684337615967e-01
-2.127123922109603882e-01
-4.133678674697875977e-01
-9.702561795711517334e-02
2.382339686155319214e-01
1.324560344219207764e-01
-4.653915762901306152e-01
-5.203577280044555664e-01
4.633922576904296875e-01
1.212003678083419800e-01
-3.274147808551788330e-01
6.865480542182922363e-02
1.910560578107833862e-01
3.940902054309844971e-01
4.154004752635955811e-01
-3.011659346520900726e-02
3.567746281623840332e-01
3.185357749462127686e-01
8.512725681066513062e-02
-4.654183238744735718e-02
-9.970242157578468323e-03
-3.187398612499237061e-02
2.277940697968006134e-02
7.161705940961837769e-02
9.959292411804199219e-02
2.601530216634273529e-02
5.472968220710754395e-01
6.235365942120552063e-02
3.411624133586883545e-01
6.883036345243453979e-02
3.493381431326270103e-03
1.065159887075424194e-01
9.295111894607543945e-02
-1.798376888036727905e-01
1.426224857568740845e-01
-1.319032013416290283e-01
7.842709869146347046e-02
1.807950437068939209e-01
1.738790124654769897e-01
-2.244281917810440063e-01
-2.586113512516021729e-01
4.171787877567112446e-04
5.973497405648231506e-02
2.770772576332092285e-01
3.888154923915863037e-01
3.782071173191070557e-01
-8.932270109653472900e-02
-2.611766010522842407e-02
3.743959665298461914e-01
1.039689332246780396e-01
-1.011336669325828552e-01
4.551696777343750000e-01
-4.718465805053710938e-01
3.038604259490966797e-01
-3.907612860202789307e-01
-7.397598586976528168e-03
-8.331870287656784058e-02
-2.217664420604705811e-01
-3.341991305351257324e-01
5.437883138656616211e-01
3.400653004646301270e-01
1.740067452192306519e-02
-1.801521182060241699e-01
3.281877934932708740e-01
7.704386115074157715e-01
-2.758477926254272461e-01
-8.505910038948059082e-01
-7.294166684150695801e-01
5.663068890571594238e-01
-2.041228144662454724e-04
-3.187600076198577881e-01
-4.923283159732818604e-01
4.924979507923126221e-01
-7.803708314895629883e-03
1.198084093630313873e-02
1.663643568754196167e-01
4.229503571987152100e-01
5.309448838233947754e-01
3.768458962440490723e-01
1.875884458422660828e-02
2.688700854778289795e-01
3.873689174652099609e-01
1.834270954132080078e-01
3.233624398708343506e-01
-7.218808680772781372e-02
1.580473929643630981e-01
9.164135158061981201e-02
3.022131621837615967e-01
-2.103815376758575439e-01
3.141060471534729004e-01
-5.971665382385253906e-01
-1.080462411046028137e-01
1.084906831383705139e-01
-2.547726593911647797e-02
1.948350071907043457e-01
1.202615629881620407e-02
4.255839809775352478e-02
-1.678352206945419312e-01
-2.527164518833160400e-01
-2.255931310355663300e-02
3.404108285903930664e-01
-5.452166870236396790e-02
-1.503729820251464844e-01
8.675833046436309814e-02
1.501177102327346802e-01
3.365949094295501709e-01
2.571317367255687714e-02
-3.233767449855804443e-01
-1.651434153318405151e-01
-1.709357649087905884e-01
6.679888963699340820e-01
-1.744168624281883240e-02
2.843908667564392090e-01
1.581844687461853027e-01
-1.057850793004035950e-01
2.403366118669509888e-01
4.258858412504196167e-02
7.517628371715545654e-02
3.570725023746490479e-01
-1.679050773382186890e-01
6.790172308683395386e-02
-1.126317456364631653e-01
7.704634964466094971e-02
2.090863287448883057e-01
4.844021797180175781e-01
4.902043342590332031e-01
-2.277396321296691895e-01
5.892409682273864746e-01
5.268046259880065918e-01
-2.040190696716308594e-01
-2.510342597961425781e-01
-4.132786095142364502e-01
2.056465744972229004e-01
-8.239355683326721191e-02
-4.981754422187805176e-01
-8.529160916805267334e-02
4.469840526580810547e-01
-5.706804990768432617e-02
-2.059587836265563965e-01
-1.720110327005386353e-01
2.006421238183975220e-01
7.646680474281311035e-01
7.311486452817916870e-02
-3.832418704405426979e-03
8.643604815006256104e-02
3.403199017047882080e-01
-8.345574885606765747e-02
-2.437606006860733032e-01
1.021829769015312195e-01
5.608437210321426392e-02
-1.039430219680070877e-02
2.914592921733856201e-01
-1.108923703432083130e-01
1.005174517631530762e-01
-3.204676210880279541e-01
-2.391159832477569580e-01
-2.431578785181045532e-01
-2.435332685708999634e-01
2.324706912040710449e-01
-1.089692953974008560e-02
-6.845983862876892090e-02
4.275013506412506104e-01
6.273186951875686646e-02
3.905764222145080566e-01
-4.653466865420341492e-03
-7.690708339214324951e-02
-4.897063076496124268e-01
5.452448725700378418e-01
2.063102126121520996e-01
5.199026465415954590e-01
1.494546234607696533e-01
-4.486983418464660645e-01
-3.666860461235046387e-01
-1.126782149076461792e-01
9.266884326934814453e-01
-2.315640635788440704e-02
-1.082673743367195129e-01
7.684275507926940918e-02
1.868951171636581421e-01
2.029523402452468872e-01
-1.277378499507904053e-01
3.599914535880088806e-02
2.385634481906890869e-01
3.330439627170562744e-01
-3.225275129079818726e-02
2.744606435298919678e-01
-1.870134323835372925e-01
2.661072909832000732e-01
-2.959359996020793915e-02
-6.406323611736297607e-02
2.326079457998275757e-01
1.883288472890853882e-01
2.577433176338672638e-02
1.976671963930130005e-01
-5.443762615323066711e-02
1.862006932497024536e-01
-2.325042486190795898e-01
-9.471108205616474152e-03
-7.253205776214599609e-02
3.651662170886993408e-01
2.064148634672164917e-01
3.865426778793334961e-01
2.236263006925582886e-01
3.090897761285305023e-02
-3.229286968708038330e-01
-1.473361849784851074e-01
1.805167794227600098e-01
-4.462500289082527161e-02
-6.385774165391921997e-02
4.585074186325073242e-01
-1.646200381219387054e-02
8.498407900333404541e-02
8.156523108482360840e-02
-4.832616448402404785e-02
2.495114058256149292e-01
-9.812777489423751831e-02
-2.052330672740936279e-01
2.033897116780281067e-02
1.372131854295730591e-01
-2.971231341361999512e-01
1.835613548755645752e-01
1.544490754604339600e-01
-4.380109906196594238e-02
-7.932139933109283447e-02
2.803893294185400009e-03
1.865445524454116821e-01
-1.157555878162384033e-01
2.297156862914562225e-02
-2.682418227195739746e-01
9.448029845952987671e-02
-2.207871079444885254e-01
-7.442843914031982422e-02
-9.182900190353393555e-02
-7.622816413640975952e-02
1.217909529805183411e-01
-2.545355558395385742e-01
-8.882079273462295532e-02
-1.759015619754791260e-01
-8.380269259214401245e-02
-2.243506349623203278e-02
-2.210239768028259277e-01
-2.057638764381408691e-01
1.036300044506788254e-02
9.998574852943420410e-02
5.014096945524215698e-02
2.095126211643218994e-01
1.206898782402276993e-02
-3.992823511362075806e-02
8.711131289601325989e-03
-2.706236839294433594e-01
-1.051718667149543762e-01
6.130016595125198364e-02
9.421091526746749878e-04
-1.781544461846351624e-02
6.908188015222549438e-02
1.717909723520278931e-01
1.847850233316421509e-01
-1.305952221155166626e-01
-3.241495415568351746e-02
-3.016889095306396484e-02
-1.329319030046463013e-01
9.116466343402862549e-02
1.808010935783386230e-01
1.230931952595710754e-01
-5.830258876085281372e-02
1.825062744319438934e-02
-1.484724283218383789e-01
6.718046218156814575e-02
-2.440855465829372406e-02
-1.193388402462005615e-01
1.036443933844566345e-01
-3.403022140264511108e-02
-9.210489690303802490e-02
1.903521716594696045e-01
3.145675361156463623e-01
5.389010906219482422e-01
-1.726204901933670044e-01
3.122438192367553711e-01
9.677381813526153564e-02
-1.431760489940643311e-01
-2.909476161003112793e-01
7.679779827594757080e-02
-3.945645093917846680e-01
7.118951082229614258e-01
4.212419092655181885e-01
-3.273563086986541748e-01
-2.835226953029632568e-01
5.313037037849426270e-01
8.520326018333435059e-01
-3.995234966278076172e-01
-6.388716101646423340e-01
-8.284772038459777832e-01
3.407621383666992188e-01
-1.145230606198310852e-01
-5.293389558792114258e-01
-6.939910650253295898e-01
7.249566316604614258e-01
1.324516981840133667e-01
-1.129711642861366272e-01
-1.696855324553325772e-04
4.787668958306312561e-02
6.342586278915405273e-01
5.002022385597229004e-01
2.722806856036186218e-02
6.076259016990661621e-01
7.053565382957458496e-01
5.874339118599891663e-02
5.196416378021240234e-01
-1.649593412876129150e-01
1.495779007673263550e-01
1.404298990964889526e-01
6.064222753047943115e-02
-2.611188292503356934e-01
-3.012422025203704834e-01
3.053834289312362671e-02
1.922919750213623047e-01
4.073696732521057129e-01
3.960682824254035950e-02
-4.064232483506202698e-02
4.550009220838546753e-02
1.883939355611801147e-01
9.624635428190231323e-02
-1.945177316665649414e-01
-9.829327464103698730e-02
7.542911171913146973e-02
2.977703213691711426e-01
-4.569578766822814941e-01
-1.075075822882354259e-03
4.265710413455963135e-01
3.170160055160522461e-01
2.230188250541687012e-01
-4.905370064079761505e-03
2.032128572463989258e-01
3.526242673397064209e-01
4.202272295951843262e-01
3.157563135027885437e-02
2.754972577095031738e-01
2.951319515705108643e-01
9.518666565418243408e-02
-4.697371646761894226e-02
8.398365229368209839e-02
-5.445306003093719482e-02
2.371360212564468384e-01
9.657245129346847534e-02
-7.619012147188186646e-02
1.419558525085449219e-01
-4.747968167066574097e-02
7.181095425039529800e-03
2.468854188919067383e-02
-1.714789271354675293e-01
1.405192073434591293e-03
-1.549781411886215210e-01
1.509491801261901855e-01
1.054571866989135742e-01
7.500603049993515015e-02
3.472747281193733215e-02
-1.286563426256179810e-01
-1.237893756479024887e-02
-2.219514548778533936e-02
-1.066586524248123169e-01
-1.854254491627216339e-02
-2.755866385996341705e-02
6.320579349994659424e-02
2.377240359783172607e-02
-3.854878619313240051e-02
-1.048439741134643555e-01
2.146843671798706055e-01
5.627708509564399719e-02
-1.517037451267242432e-01
5.767421051859855652e-02
-9.089419990777969360e-02
-6.207588315010070801e-01
3.300058245658874512e-01
6.364702433347702026e-02
-2.321918494999408722e-02
5.386036634445190430e-01
-3.828838095068931580e-02
3.118903003633022308e-02
-7.749519497156143188e-02
5.470283329486846924e-02
-5.924009680747985840e-01
2.628211379051208496e-01
-9.039897471666336060e-02
2.080519348382949829e-01
-4.025969207286834717e-01
2.295775115489959717e-01
2.736012935638427734e-01
2.939684689044952393e-01
-4.105147719383239746e-01
-1.136814355850219727e-01
-3.286432921886444092e-01
2.699664533138275146e-01
5.211641639471054077e-02
2.650583386421203613e-01
4.953757226467132568e-01
-6.222527027130126953e-01
-3.418312370777130127e-01
-2.969209849834442139e-01
7.053512334823608398e-01
-5.708030238747596741e-02
-7.266395539045333862e-02
3.323787450790405273e-01
-4.570499658584594727e-01
-8.489056229591369629e-01
-7.899226248264312744e-02
-4.137831926345825195e-02
-5.702654123306274414e-01
2.690230607986450195e-01
4.390486478805541992e-01
4.684679210186004639e-03
-1.307586431503295898e-01
7.522334158420562744e-02
-3.392932564020156860e-02
-2.130152881145477295e-01
-4.786339774727821350e-02
6.836892664432525635e-02
-3.466157317161560059e-01
-1.948225498199462891e-01
-1.549272388219833374e-01
5.176910758018493652e-01
2.749704122543334961e-01
-9.722589701414108276e-02
-8.504920452833175659e-02
-2.248464226722717285e-01
2.922346293926239014e-01
5.909837409853935242e-02
-9.899543225765228271e-02
-1.276231110095977783e-01
4.649924337863922119e-01
4.829332530498504639e-01
4.044933319091796875e-01
-1.161179598420858383e-02
-1.272294204682111740e-02
3.814584016799926758e-01
9.692239016294479370e-02
1.354860812425613403e-01
-6.817521899938583374e-02
-1.318873185664415359e-02
1.276836097240447998e-01
-1.084145903587341309e-01
-2.274636477231979370e-01
1.620921641588211060e-01
-1.928974986076354980e-01
-8.782776445150375366e-02
-1.211956739425659180e-01
-2.230438292026519775e-01
1.603492051362991333e-01
-4.751391708850860596e-02
-8.386031538248062134e-02
-8.632248640060424805e-02
-1.335948556661605835e-01
3.421652689576148987e-02
-2.512323260307312012e-01
5.557616427540779114e-02
-4.916771128773689270e-02
2.917847037315368652e-02
-1.322467774152755737e-01
9.050329029560089111e-02
1.847114562988281250e-01
-2.100857347249984741e-01
-3.105595707893371582e-01
-3.058278560638427734e-01
8.173608034849166870e-02
-6.478721648454666138e-02
-2.112706452608108521e-01
3.505136119201779366e-03
5.909680202603340149e-02
6.378975510597229004e-01
-1.796512305736541748e-01
2.205703407526016235e-01
1.758915334939956665e-01
2.019152045249938965e-01
-7.969919592142105103e-02
6.439847499132156372e-02
-2.945338189601898193e-01
2.704519331455230713e-01
-1.787173189222812653e-02
-4.720736667513847351e-02
1.531812250614166260e-01
5.793714523315429688e-02
1.833508014678955078e-01
1.491348147392272949e-01
-5.582787394523620605e-01
-2.463109791278839111e-01
3.402551114559173584e-01
7.508333772420883179e-02
-6.483537703752517700e-02
-7.327971048653125763e-03
4.226038753986358643e-01
2.752638608217239380e-02
1.089783981442451477e-01
-7.824225723743438721e-02
-1.065773889422416687e-01
3.273605406284332275e-01
3.852152228355407715e-01
4.806798696517944336e-02
5.570222735404968262e-01
4.043790102005004883e-01
4.952031746506690979e-02
4.043373465538024902e-02
1.486576497554779053e-01
-1.286699902266263962e-02
7.346936035901308060e-03
2.229098603129386902e-02
-1.030412390828132629e-01
9.210678935050964355e-02
-1.652377396821975708e-01
-2.325149439275264740e-02
-9.778214991092681885e-02
-1.349390745162963867e-01
1.444652080535888672e-01
1.779313758015632629e-02
-6.246116012334823608e-02
6.544373929500579834e-02
-1.457789242267608643e-01
1.072602048516273499e-01
-2.988508641719818115e-01
-1.297814585268497467e-02
-9.854609519243240356e-02
-6.577458698302507401e-03
5.969277024269104004e-02
8.350872248411178589e-02
3.501652274280786514e-03
-1.252108812332153320e-01
9.638483822345733643e-02
9.336681663990020752e-02
1.695816367864608765e-01
-5.530509632080793381e-03
-3.227638602256774902e-01
-5.110025033354759216e-02
1.079608723521232605e-01
3.555291593074798584e-01
-3.103385269641876221e-01
2.159004658460617065e-01
2.836480736732482910e-01
1.246021538972854614e-01
-1.046136915683746338e-01
2.935721278190612793e-01
1.136118471622467041e-01
3.533337712287902832e-01
3.647021055221557617e-01
8.626227080821990967e-02
2.076773047447204590e-01
-1.709818243980407715e-01
1.015152931213378906e-01
3.425557613372802734e-01
1.478420495986938477e-01
-2.809004187583923340e-01
-1.610159128904342651e-01
4.589531943202018738e-02
-4.235549643635749817e-02
3.838068842887878418e-01
3.866197764873504639e-01
2.762043178081512451e-01
4.010742008686065674e-01
-9.881778806447982788e-02
8.788694441318511963e-02
1.390987485647201538e-01
2.011558562517166138e-01
-2.283850684762001038e-02
3.495074436068534851e-02
2.167974561452865601e-01
2.087877094745635986e-01
3.038431704044342041e-01
4.172803461551666260e-01
1.550844609737396240e-01
3.418523371219635010e-01
-9.603007882833480835e-02
-2.427122443914413452e-01
-2.761701047420501709e-01
5.583263188600540161e-02
-1.576430648565292358e-01
-1.589524000883102417e-01
5.799881219863891602e-01
3.859687149524688721e-01
-1.781160086393356323e-01
-4.756942763924598694e-02
2.401403635740280151e-01
-1.004087626934051514e-01
3.185378015041351318e-01
2.466776221990585327e-01
-9.828066080808639526e-02
-4.938107728958129883e-01
2.664840817451477051e-01
-1.705213934183120728e-01
2.050778418779373169e-01
1.894787251949310303e-01
-4.682997167110443115e-01
1.452618539333343506e-01
-1.366385631263256073e-02
1.531617045402526855e-01
-2.619585953652858734e-02
1.754250973463058472e-01
6.058498099446296692e-02
-8.348095230758190155e-03
8.345679193735122681e-02
-1.638183556497097015e-02
-2.302563786506652832e-01
-9.296186268329620361e-02
3.104181289672851562e-01
-1.231548096984624863e-02
-4.641514420509338379e-01
3.664399385452270508e-01
4.771419465541839600e-01
-1.735973507165908813e-01
3.367810696363449097e-02
-4.606547206640243530e-02
-1.330942660570144653e-01
3.367256522178649902e-01
1.323190517723560333e-02
2.509302459657192230e-02
1.076190397143363953e-01
1.615819036960601807e-01
6.727369874715805054e-02
4.120431244373321533e-01
-8.476607501506805420e-02
-1.636556722223758698e-02
1.927003115415573120e-01
-2.196052484214305878e-02
2.503312826156616211e-01
3.720617294311523438e-01
2.260128706693649292e-01
3.186036646366119385e-01
-2.915074490010738373e-02
6.770642846822738647e-02
-1.001455560326576233e-01
-7.243896275758743286e-02
-1.644879877567291260e-01
1.311997175216674805e-01
-1.058447286486625671e-01
-1.841795444488525391e-02
5.725961327552795410e-01
8.836730848997831345e-04
-2.798313498497009277e-01
3.417790234088897705e-01
1.408357918262481689e-01
-1.831157356500625610e-01
5.239485502243041992e-01
1.857988983392715454e-01
-1.960902661085128784e-01
1.610035896301269531e-01
2.411720603704452515e-01
7.708586752414703369e-02
-5.049528926610946655e-02
7.317633926868438721e-02
-2.431243890896439552e-03
-1.058207973837852478e-01
4.781766235828399658e-02
2.075569480657577515e-01
4.312367439270019531e-01
2.405283004045486450e-01
-3.102826774120330811e-01
2.845414876937866211e-01
2.478617243468761444e-02
3.909151852130889893e-01
6.213220767676830292e-03
-8.479777723550796509e-02
1.111966222524642944e-01
6.717604398727416992e-01
1.566268205642700195e-01
1.916917413473129272e-01
6.846900582313537598e-01
6.762785911560058594e-01
2.352096736431121826e-01
-5.575722455978393555e-02
4.486892223358154297e-01
-4.967251718044281006e-01
2.190555930137634277e-01
-3.288685083389282227e-01
-4.108063876628875732e-03
2.863040268421173096e-01
5.268957018852233887e-01
-4.194190800189971924e-01
-2.206487059593200684e-01
-3.660365939140319824e-01
-1.446426212787628174e-01
-6.978259682655334473e-01
-1.197991073131561279e-01
-4.530422091484069824e-01
-1.004250049591064453e-01
-3.762129321694374084e-02
8.108198642730712891e-02
2.900647744536399841e-02
-2.923984229564666748e-01
-5.352317690849304199e-01
-2.824227809906005859e-01
5.754214525222778320e-01
4.551443457603454590e-02
-3.275683820247650146e-01
-2.752813994884490967e-01
-1.144182384014129639e-01
1.384433507919311523e-01
3.518462553620338440e-02
-9.459366649389266968e-02
-1.852713078260421753e-01
1.522228419780731201e-01
1.948802769184112549e-01
-3.138848543167114258e-01
1.792108267545700073e-01
2.646941542625427246e-01
2.374859601259231567e-01
-3.463822603225708008e-02
-1.731138080358505249e-01
1.070823520421981812e-01
1.566778719425201416e-01
-1.520225852727890015e-01
3.321985155344009399e-02
-3.002482950687408447e-01
3.378927409648895264e-01
-4.909025132656097412e-02
5.654150154441595078e-03
-4.609225988388061523e-01
1.548148691654205322e-01
2.183841019868850708e-01
2.069154828786849976e-01
2.295013889670372009e-02
-1.229503080248832703e-01
1.095010712742805481e-01
2.355177700519561768e-01
-5.474756285548210144e-02
3.570878207683563232e-01
5.720797181129455566e-02
1.353329569101333618e-01
2.765145301818847656e-01
-1.061661913990974426e-01
3.024892807006835938e-01
1.537056267261505127e-01
1.536716371774673462e-01
-3.509599864482879639e-01
1.608321666717529297e-01
-6.401118040084838867e-01
8.277685195207595825e-02
-7.518512010574340820e-02
1.493181884288787842e-01
2.475298494100570679e-01
1.326052844524383545e-01
7.859089225530624390e-02
-5.059556663036346436e-02
-2.168121784925460815e-01
1.120486333966255188e-01
-1.587108373641967773e-01
-8.147527277469635010e-02
-6.088246107101440430e-01
3.942252136766910553e-03
4.115371406078338623e-01
4.426826834678649902e-01
-8.523969352245330811e-02
-7.672362327575683594e-01
-2.964948415756225586e-01
-3.031850755214691162e-01
6.026339530944824219e-01
4.953153803944587708e-02
3.481729924678802490e-01
2.902099788188934326e-01
-2.420247495174407959e-01
6.437798142433166504e-01
-1.297134757041931152e-01
5.756346881389617920e-02
-2.449430227279663086e-01
-4.032344371080398560e-02
-3.586484193801879883e-01
-1.970586925745010376e-01
-4.992419853806495667e-02
3.212352693080902100e-01
1.926693022251129150e-01
5.206089094281196594e-02
-5.650367587804794312e-03
1.255492419004440308e-01
3.487589061260223389e-01
-5.323364138603210449e-01
-3.678722977638244629e-01
-2.336185723543167114e-01
3.156113624572753906e-01
-1.143494248390197754e-01
-4.843052625656127930e-01
-4.817263409495353699e-02
2.953979074954986572e-01
5.402380824089050293e-01
1.162080690264701843e-01
-2.690227925777435303e-01
2.047321796417236328e-01
5.839483067393302917e-02
2.506445944309234619e-01
4.464706405997276306e-02
1.403607130050659180e-01
1.868943274021148682e-01
-9.669276885688304901e-03
-7.623606175184249878e-02
1.207509338855743408e-01
-1.245259772986173630e-02
-3.763632103800773621e-02
7.733998298645019531e-01
5.367174744606018066e-02
-7.163719087839126587e-02
1.116038579493761063e-02
2.752836942672729492e-01
2.128973603248596191e-01
-1.560114622116088867e-01
1.079812645912170410e-01
3.184192180633544922e-01
3.045988082885742188e-01
-1.206224933266639709e-01
6.637004017829895020e-01
2.439292073249816895e-01
-2.104603648185729980e-01
-2.584252320230007172e-02
2.399264276027679443e-01
2.184612303972244263e-01
2.185199111700057983e-01
3.830540478229522705e-01
-4.384802654385566711e-02
3.488052636384963989e-02
-1.971378773450851440e-01
2.713049948215484619e-01
6.055728197097778320e-01
1.629810407757759094e-02
-3.378832340240478516e-01
2.484014928340911865e-01
-9.812629222869873047e-02
1.471506506204605103e-01
-1.811797916889190674e-01
-4.705129656940698624e-03
-1.788512803614139557e-02
9.863059222698211670e-02
2.488828450441360474e-01
-2.420445904135704041e-02
6.705201417207717896e-02
6.799893081188201904e-02
-1.551435440778732300e-01
-6.602467503398656845e-03
-6.792332977056503296e-02
-1.267215609550476074e-01
1.535637527704238892e-01
-8.294618129730224609e-02
-3.424853459000587463e-02
-2.674275077879428864e-02
-1.893963962793350220e-01
8.141176402568817139e-02
1.077807769179344177e-01
-1.953778266906738281e-01
6.460395455360412598e-02
1.606584638357162476e-01
1.672135144472122192e-01
-2.106890641152858734e-02
4.615335538983345032e-02
-4.403422027826309204e-02
9.189867228269577026e-02
-1.062102499417960644e-03
-2.894851863384246826e-01
-2.963658794760704041e-02
4.853652045130729675e-02
-2.779252827167510986e-01
1.197590455412864685e-01
2.180312275886535645e-01
1.041466929018497467e-02
2.841628193855285645e-01
1.415453944355249405e-02
1.582427136600017548e-02
1.530573368072509766e-01
-1.054732427000999451e-01
-1.523244529962539673e-01
-2.426309883594512939e-02
1.363143138587474823e-02
-3.750214353203773499e-02
-1.905637383460998535e-01
1.006213575601577759e-01
1.636597067117691040e-01
1.009255126118659973e-01
-4.968782886862754822e-02
1.702641248703002930e-01
-4.418642446398735046e-02
-1.056723743677139282e-01
1.923705637454986572e-01
2.059115171432495117e-01
6.229034811258316040e-02
-5.849284306168556213e-02
-3.471183031797409058e-02
2.045885287225246429e-02
3.599970042705535889e-01
-6.132622063159942627e-02
-3.964210301637649536e-02
1.741390228271484375e-01
-2.359151840209960938e-01
2.666507065296173096e-01
-1.981457322835922241e-01
-4.747083410620689392e-02
-8.784185349941253662e-02
4.137595593929290771e-01
9.206379950046539307e-02
1.756142377853393555e-01
1.099130660295486450e-01
-8.888918161392211914e-02
4.186666607856750488e-01
1.794192939996719360e-01
-1.218128204345703125e-01
6.805749982595443726e-02
1.693686819635331631e-03
1.128165274858474731e-01
-7.046093791723251343e-02
3.353122770786285400e-01
2.678073942661285400e-01
3.575750812888145447e-02
1.953912973403930664e-01
1.890369653701782227e-01
4.135933816432952881e-01
5.228220820426940918e-01
2.010579556226730347e-01
3.803779184818267822e-02
1.146270483732223511e-01
2.856156527996063232e-01
5.549608469009399414e-01
-4.327939078211784363e-02
2.826065719127655029e-01
4.305274486541748047e-01
2.105368226766586304e-01
3.802511394023895264e-01
2.766714394092559814e-01
3.147789239883422852e-01
1.533256024122238159e-01
1.810282282531261444e-02
-1.936301141977310181e-01
-8.855219185352325439e-02
2.894604504108428955e-01
-2.260633409023284912e-01
8.392810076475143433e-02
3.535122573375701904e-01
1.717882603406906128e-01
7.523556053638458252e-02
2.023422718048095703e-01
1.072179004549980164e-01
9.204886108636856079e-02
-3.944451734423637390e-02
-2.604071609675884247e-02
-1.061544120311737061e-01
-4.126087725162506104e-01
1.873755902051925659e-01
-1.146145761013031006e-01
2.068564742803573608e-01
4.682055115699768066e-01
-3.802313208580017090e-01
1.062229946255683899e-01
-4.143675863742828369e-01
-2.257502824068069458e-02
-1.607517339289188385e-02
6.313265115022659302e-02
8.256965875625610352e-02
5.317996144294738770e-01
1.563665270805358887e-01
4.919242560863494873e-01
6.720512509346008301e-01
2.208392769098281860e-01
-3.324921801686286926e-02
6.263686716556549072e-02
2.559910714626312256e-01
-6.459958106279373169e-02
-2.964362502098083496e-01
-2.970227599143981934e-01
2.032545208930969238e-01
5.435735583305358887e-01
1.088373661041259766e-01
-5.027510523796081543e-01
7.389415055513381958e-02
4.805863648653030396e-02
8.609654009342193604e-02
-5.012781023979187012e-01
1.360142379999160767e-01
-9.590340852737426758e-01
3.208686783909797668e-02
-1.018298976123332977e-02
-2.146911174058914185e-01
1.695537567138671875e-01
-6.359111666679382324e-01
-1.304364651441574097e-01
-4.442975223064422607e-01
1.897547692060470581e-01
-3.213683888316154480e-02
-9.525766223669052124e-02
6.272248458117246628e-03
-1.541579514741897583e-01
-3.598327934741973877e-01
3.362611234188079834e-01
1.316307228989899158e-03
1.597552150487899780e-01
2.177982777357101440e-01
2.642074227333068848e-01
1.287792474031448364e-01
1.279562860727310181e-01
-9.600783139467239380e-02
-1.477593332529067993e-01
-1.953932046890258789e-01
1.742068529129028320e-01
1.667242050170898438e-01
-1.542480587959289551e-01
8.257310092449188232e-02
-1.819367706775665283e-01
2.350018024444580078e-01
-1.685375124216079712e-01
2.811869680881500244e-01
-6.069918349385261536e-02
-1.194692552089691162e-01
1.880232989788055420e-01
3.517627716064453125e-02
4.841239657253026962e-03
-1.349220722913742065e-01
-2.012851983308792114e-01
-2.324951142072677612e-01
3.124715983867645264e-01
-5.766452848911285400e-02
-3.912283107638359070e-02
2.638377249240875244e-01
-6.444193422794342041e-02
3.942571282386779785e-01
-1.534528285264968872e-01
-1.670771464705467224e-02
-1.311449706554412842e-01
-2.350652813911437988e-01
2.085769921541213989e-02
-2.891910970211029053e-01
8.507336676120758057e-02
2.217209339141845703e-01
4.030154347419738770e-01
-1.199212297797203064e-01
-1.513989418745040894e-01
3.931722417473793030e-02
4.831630885601043701e-01
-1.529654562473297119e-01
-1.201390847563743591e-01
-8.554300665855407715e-02
6.812146306037902832e-01
1.207686290144920349e-01
2.808730602264404297e-01
-1.887528002262115479e-01
3.220143541693687439e-02
1.654276847839355469e-01
-9.682586789131164551e-02
6.005809307098388672e-01
3.494017422199249268e-01
2.310677170753479004e-01
2.190530300140380859e-01
2.467217482626438141e-02
2.621407210826873779e-01
3.557442501187324524e-02
-6.352930516004562378e-02
1.114296168088912964e-02
-2.010696679353713989e-01
-1.914891004562377930e-01
-2.220053821802139282e-01
4.813559725880622864e-02
7.521110028028488159e-02
-2.701838910579681396e-01
4.914075136184692383e-02
3.160485029220581055e-01
4.952131211757659912e-02
-1.130148544907569885e-01
-2.992140650749206543e-01
2.772785723209381104e-01
6.240889802575111389e-02
-2.044458091259002686e-01
9.794315695762634277e-02
-8.598477393388748169e-02
-5.390894785523414612e-02
1.993985623121261597e-01
7.488408684730529785e-02
-3.693926334381103516e-01
1.011212244629859924e-01
2.393715977668762207e-01
6.729256361722946167e-02
2.055592536926269531e-01
7.849425822496414185e-02
1.173819154500961304e-01
2.311604022979736328e-01
-1.374737080186605453e-02
3.498554825782775879e-01
-5.728049948811531067e-02
-1.572292894124984741e-01
7.482620477676391602e-01
-4.487769007682800293e-01
2.131308615207672119e-01
6.613488495349884033e-02
-1.278587579727172852e-01
-4.569918513298034668e-01
-6.772661209106445312e-01
-1.194442901760339737e-02
1.242508962750434875e-01
5.941893458366394043e-01
-2.155825495719909668e-02
-1.085130795836448669e-01
2.137742638587951660e-01
3.496171534061431885e-01
-4.646797776222229004e-01
-2.694551646709442139e-01
-3.383645713329315186e-01
2.395013868808746338e-01
2.230086028575897217e-01
-2.404003739356994629e-01
-2.649666368961334229e-01
1.100869476795196533e-01
4.234872162342071533e-01
1.150496378540992737e-01
3.372983261942863464e-02
1.646698564291000366e-01
2.989731729030609131e-01
2.950239479541778564e-01
-1.214669086039066315e-02
3.654648363590240479e-01
1.069524660706520081e-01
2.945376038551330566e-01
3.732737302780151367e-01
-2.052800916135311127e-02
2.020761966705322266e-01
1.307199597358703613e-01
9.197471290826797485e-02
-6.830713246017694473e-03
1.263695582747459412e-02
-5.115329623222351074e-01
2.606017291545867920e-01
1.668948233127593994e-01
-3.313134014606475830e-01
3.611239790916442871e-02
6.887335330247879028e-02
9.418904781341552734e-02
1.077727526426315308e-01
-1.876517832279205322e-01
-1.847281157970428467e-01
2.590969800949096680e-01
6.612908840179443359e-02
-1.638407260179519653e-01
3.910141065716743469e-02
1.653204411268234253e-01
-1.899435184895992279e-03
4.433838427066802979e-01
5.104764550924301147e-02
1.806943491101264954e-02
-7.326234132051467896e-02
2.561748921871185303e-01
-6.578122079372406006e-02
3.344694375991821289e-01
1.389337778091430664e-01
-7.709240168333053589e-02
5.873986482620239258e-01
-2.705562710762023926e-01
-3.177234611939638853e-04
3.570448160171508789e-01
-2.540329098701477051e-01
-4.430213868618011475e-01
-3.751124441623687744e-01
-1.990914717316627502e-02
4.146645963191986084e-01
8.728347420692443848e-01
4.251031875610351562e-01
-3.201629593968391418e-02
8.778269886970520020e-01
7.185946702957153320e-01
-4.954777956008911133e-01
-8.581197857856750488e-01
-8.208200335502624512e-01
3.062207400798797607e-01
-3.347374126315116882e-02
-2.821226418018341064e-01
-6.873027086257934570e-01
5.505793094635009766e-01
3.621763288974761963e-01
-8.126182854175567627e-02
3.699260056018829346e-01
3.582217395305633545e-01
8.849364519119262695e-01
1.670409888029098511e-01
-5.068647861480712891e-02
5.164764523506164551e-01
3.586230576038360596e-01
1.838513761758804321e-01
-1.667324304580688477e-01
-1.111445501446723938e-01
3.905526697635650635e-01
4.180192351341247559e-01
6.304260343313217163e-02
8.775389939546585083e-02
2.886247336864471436e-01
-5.102244615554809570e-01
-1.815984547138214111e-01
-2.150068879127502441e-01
-3.507374227046966553e-01
3.570853471755981445e-01
4.046824574470520020e-02
-3.432309329509735107e-01
3.204129338264465332e-01
1.254337932914495468e-02
2.805133163928985596e-01
-1.487324535846710205e-01
-1.558818966150283813e-01
-2.869148738682270050e-03
2.241706848144531250e-01
-1.279117017984390259e-01
-1.540617942810058594e-01
4.819119572639465332e-01
-2.700243890285491943e-01
-2.780278921127319336e-01
-3.767450898885726929e-02
3.934974968433380127e-01
7.807375397533178329e-03
2.857454679906368256e-02
-2.553981915116310120e-02
-7.960649579763412476e-02
-4.400967154651880264e-03
9.404093027114868164e-02
-6.275236606597900391e-02
-1.266875676810741425e-02
7.605372667312622070e-01
2.193564623594284058e-01
5.058794021606445312e-01
-3.756267726421356201e-01
7.165008224546909332e-03
-1.675971448421478271e-01
-2.772104144096374512e-01
2.290073335170745850e-01
9.085640311241149902e-02
-8.268414437770843506e-02
5.679296851158142090e-01
1.456323862075805664e-01
2.281792461872100830e-01
-3.994071185588836670e-01
-2.456331253051757812e-02
-8.247174322605133057e-02
2.139317393302917480e-01
-7.242844998836517334e-02
1.238228902220726013e-01
2.781418897211551666e-02
-2.049679607152938843e-01
-2.319933176040649414e-01
3.544329106807708740e-02
2.336906343698501587e-01
1.058732531964778900e-02
-3.509031832218170166e-01
3.136268854141235352e-01
9.003911167383193970e-02
1.083982214331626892e-01
6.442146748304367065e-02
1.249106824398040771e-01
1.983306556940078735e-01
7.692237198352813721e-02
-2.162767350673675537e-01
2.463277801871299744e-02
-7.028894871473312378e-02
-8.078055828809738159e-02
-1.358589828014373779e-01
3.786711767315864563e-02
1.367844790220260620e-01
-2.842674031853675842e-02
1.218400225043296814e-01
-1.372315455228090286e-02
-2.014617323875427246e-01
-7.837303727865219116e-02
-1.335967183113098145e-01
1.832647947594523430e-03
-3.278425633907318115e-01
1.078299805521965027e-01
1.518064737319946289e-02
-5.622221156954765320e-02
1.062717139720916748e-01
-1.872972697019577026e-01
-1.053021624684333801e-01
-4.821724593639373779e-01
6.817628443241119385e-02
-6.271581351757049561e-02
-5.365265533328056335e-02
-4.176105186343193054e-02
-1.886396706104278564e-01
1.772423088550567627e-01
1.058956906199455261e-01
-1.859749108552932739e-02
-3.765640407800674438e-02
1.094316989183425903e-01
-3.753730282187461853e-02
-1.759457588195800781e-01
3.310595154762268066e-01
3.101297616958618164e-01
-7.173004001379013062e-02
1.357723176479339600e-01
8.745413273572921753e-02
5.498431622982025146e-02
3.550780117511749268e-01
-8.307036012411117554e-02
-9.942699223756790161e-02
-1.067959070205688477e-01
2.211104035377502441e-01
-1.516230776906013489e-02
-1.135746017098426819e-01
-7.291977107524871826e-02
1.584719121456146240e-01
2.726516723632812500e-01
5.182854365557432175e-03
1.728920936584472656e-01
3.677371740341186523e-01
-8.294224739074707031e-02
2.729774713516235352e-01
2.320959419012069702e-02
2.392168939113616943e-01
3.474007174372673035e-02
5.463095381855964661e-02
1.082188963890075684e+00
-5.697144865989685059e-01
5.971145257353782654e-02
-6.266240775585174561e-02
-2.335839420557022095e-01
-6.362862586975097656e-01
-5.378673672676086426e-01
3.956345468759536743e-02
2.340922802686691284e-01
7.099726796150207520e-01
-1.301794052124023438e-01
-3.234824538230895996e-02
3.034352958202362061e-01
8.029649853706359863e-01
-8.773682117462158203e-01
-7.428441047668457031e-01
-6.908529400825500488e-01
5.431365966796875000e-01
6.488025188446044922e-02
-8.877759575843811035e-01
-6.475094556808471680e-01
6.584908962249755859e-01
4.117321670055389404e-01
2.483467608690261841e-01
1.938026249408721924e-01
3.071694374084472656e-01
4.701362848281860352e-01
5.661184787750244141e-01
-4.498872160911560059e-02
7.283636927604675293e-01
5.052448511123657227e-01
-1.153147220611572266e-01
3.837853968143463135e-01
-2.951985299587249756e-01
-1.562933623790740967e-02
-1.400662809610366821e-01
-8.624874055385589600e-02
-5.131250619888305664e-02
-2.309236973524093628e-01
1.766578555107116699e-01
1.557454317808151245e-01
1.010879799723625183e-01
1.304619610309600830e-01
-1.555532515048980713e-01
1.502885967493057251e-01
2.309004813432693481e-01
-9.272199124097824097e-02
-1.098172292113304138e-01
1.981274597346782684e-02
4.292918443679809570e-01
9.666831232607364655e-03
2.235810607671737671e-01
6.160233914852142334e-02
1.386587917804718018e-01
-3.601324185729026794e-02
-3.933743759989738464e-02
2.569874525070190430e-01
2.665601372718811035e-01
6.430307030677795410e-02
1.436873227357864380e-01
-2.034605480730533600e-02
4.457436800003051758e-01
-1.664200983941555023e-02
-1.296180784702301025e-01
-8.626826852560043335e-02
4.016409628093242645e-03
9.864805638790130615e-02
-1.287258416414260864e-01
-3.352499380707740784e-02
5.295551195740699768e-02
-2.107236161828041077e-02
-5.674977228045463562e-02
-1.756539195775985718e-02
-1.324844639748334885e-02
-1.448013931512832642e-01
-1.880488172173500061e-02
-8.487606793642044067e-02
3.897992521524429321e-02
-2.387710474431514740e-02
-5.326908826828002930e-02
-2.658784389495849609e-02
-9.818840026855468750e-02
1.794547736644744873e-01
-8.159708976745605469e-02
-7.718492299318313599e-02
-1.334564983844757080e-01
1.695631593465805054e-01
-2.993920445442199707e-01
6.936299800872802734e-02
4.747861996293067932e-02
9.691234678030014038e-02
1.384406685829162598e-01
-6.743115931749343872e-02
-4.613538831472396851e-02
-4.531021229922771454e-03
2.539280056953430176e-01
-5.374136939644813538e-02
4.141087532043457031e-01
4.132308065891265869e-01
1.368304044008255005e-01
5.453774929046630859e-01
-6.140241026878356934e-02
6.547523140907287598e-01
-3.987416923046112061e-01
-3.025329411029815674e-01
-2.517227232456207275e-01
1.143399253487586975e-01
3.245643377304077148e-01
2.391953468322753906e-01
-2.503795027732849121e-01
-9.392210096120834351e-02
-3.407929325476288795e-03
-4.737721011042594910e-02
-4.064412415027618408e-01
4.037958756089210510e-02
-6.643955707550048828e-01
4.848334193229675293e-01
2.010607570409774780e-01
2.422593683004379272e-01
3.086750507354736328e-01
-7.503347992897033691e-01
-4.399046003818511963e-01
-2.201094105839729309e-02
2.681525349617004395e-01
5.349524691700935364e-02
-3.229088485240936279e-01
-1.471493691205978394e-01
